{"version": 1, "models": {"hemoglobin": {"format": "xgboost_json", "file": "origin_multitask_hb_model.json"}, "pi": {"format": "gradient_boosting_json", "learning_rate": 0.05, "init": 2.707532573071841, "estimators": [{"children_left": [1, 2, 3, 4, -1, -1, 7, -1, -1, 10, 11, -1, -1, 14, -1, -1, 17, 18, 19, -1, -1, 22, -1, -1, 25, 26, -1, -1, 29, -1, -1], "children_right": [16, 9, 6, 5, -1, -1, 8, -1, -1, 13, 12, -1, -1, 15, -1, -1, 24, 21, 20, -1, -1, 23, -1, -1, 28, 27, -1, -1, 30, -1, -1], "feature": [0, 0, 2, 3, -2, -2, 2, -2, -2, 0, 0, -2, -2, 0, -2, -2, 2, 3, 3, -2, -2, 2, -2, -2, 2, 3, -2, -2, 3, -2, -2], "threshold": [-0.3825000673532486, -1.1649454236030579, -1.0147667527198792, -2.9729244709014893, -2.0, -2.0, -0.9673901498317719, -2.0, -2.0, -0.7764605581760406, -0.9595623016357422, -2.0, -2.0, -0.5594737529754639, -2.0, -2.0, 0.4676082879304886, 0.2981664687395096, 0.06600088998675346, -2.0, -2.0, 0.16238714009523392, -2.0, -2.0, 1.5588266849517822, 1.0132396817207336, -2.0, -2.0, 1.6244470477104187, -2.0, -2.0], "value": [2.91830052187184e-16, -0.45956907115591406, -0.9191155054348572, -1.2318743488237052, -1.6159754751340791, -1.1518532808423774, -0.7704268749713058, -0.900516066111468, -0.6970432286871117, -0.28866337245713375, -0.4350237917066068, -0.5160118477573088, -0.3662603478899731, -0.18905697602346472, -0.23687616875353468, -0.12757515679908923, 0.3003482905979602, 0.13631019296123723, 0.03146376210521425, -0.019316666594883673, 0.08104935718883931, 0.24995019543744276, 0.20477251660441576, 0.31418720752815305, 0.5867499421474818, 0.4830081122552761, 0.4193053454357431, 0.540340602392856, 0.7533213309884876, 0.6793697426344015, 0.8543885017390723]}, {"children_left": [1, 2, 3, 4, -1, -1, 7, -1, -1, 10, 11, -1, -1, 14, -1, -1, 17, 18, 19, -1, -1, 22, -1, -1, 25, 26, -1, -1, 29, -1, -1], "children_right": [16, 9, 6, 5, -1, -1, 8, -1, -1, 13, 12, -1, -1, 15, -1, -1, 24, 21, 20, -1, -1, 23, -1, -1, 28, 27, -1, -1, 30, -1, -1], "feature": [0, 0, 2, 4, -2, -2, 0, -2, -2, 0, 3, -2, -2, 0, -2, -2, 3, 3, 0, -2, -2, 3, -2, -2, 0, 3, -2, -2, 2, -2, -2], "threshold": [-0.37448352575302124, -1.1544802784919739, -1.008200764656067, -1.7702592611312866, -2.0, -2.0, -1.3502578139305115, -2.0, -2.0, -0.768724113702774, -0.9329697787761688, -2.0, -2.0, -0.5715041160583496, -2.0, -2.0, 0.7564690411090851, 0.3083466738462448, -0.13763323426246643, -2.0, -2.0, 0.5399024486541748, -2.0, -2.0, 1.5196788311004639, 0.9914987087249756, -2.0, -2.0, 2.5678857564926147, -2.0, -2.0], "value": [2.7306199629471114e-16, -0.43551060302840927, -0.8698729309967373, -1.1427695521426362, -1.5351767013773754, -1.072696846922147, -0.714604163793036, -0.8319803312283002, -0.6574209027348303, -0.2721760086270956, -0.40928816107122407, -0.4883055792182302, -0.3460742265536195, -0.17725221078116096, -0.22457152285222423, -0.12204634669825343, 0.28604542565771324, 0.12813784550696164, 0.03234258834236753, -0.012777481149124477, 0.08431633927560517, 0.23743444764106228, 0.19426525482038015, 0.2932223275939439, 0.5539843515518074, 0.4535970456259309, 0.3889277977670136, 0.5051303525135056, 0.7121287375994204, 0.6464460029298158, 0.817690275461285]}, {"children_left": [1, 2, 3, 4, -1, -1, 7, -1, -1, 10, 11, -1, -1, 14, -1, -1, 17, 18, 19, -1, -1, 22, -1, -1, 25, 26, -1, -1, 29, -1, -1], "children_right": [16, 9, 6, 5, -1, -1, 8, -1, -1, 13, 12, -1, -1, 15, -1, -1, 24, 21, 20, -1, -1, 23, -1, -1, 28, 27, -1, -1, 30, -1, -1], "feature": [0, 0, 0, 3, -2, -2, 3, -2, -2, 0, 2, -2, -2, 0, -2, -2, 2, 2, 3, -2, -2, 3, -2, -2, 3, 2, -2, -2, 2, -2, -2], "threshold": [-0.3411176949739456, -1.132432222366333, -1.492313802242279, -2.702241897583008, -2.0, -2.0, -1.5969653129577637, -2.0, -2.0, -0.7431635856628418, -0.8010551929473877, -2.0, -2.0, -0.5323080718517303, -2.0, -2.0, 0.5199635624885559, -0.06406394578516483, 0.14890267699956894, -2.0, -2.0, 0.5885016918182373, -2.0, -2.0, 1.3525044918060303, 0.9987886548042297, -2.0, -2.0, 2.8325451612472534, -2.0, -2.0], "value": [2.87336292325606e-16, -0.397772458673947, -0.8114500905949028, -1.073606351031667, -1.3461597581251623, -0.9792609408839185, -0.6610325641147919, -0.7618347962635134, -0.6041697664924365, -0.24080387106757692, -0.3765134841843357, -0.4484534037607649, -0.32026954706094546, -0.15500037374214232, -0.20370438770493218, -0.09885546875725969, 0.28273439526926236, 0.13794335825635384, 0.049161858157325294, 0.0129035062768368, 0.10864821671125172, 0.24213831323368573, 0.20049216397298003, 0.292754402335159, 0.5373388592301632, 0.4489178816017662, 0.3964774777905333, 0.5062138783584834, 0.6910553280303008, 0.6405785093605999, 0.8046281700371274]}, {"children_left": [1, 2, 3, 4, -1, -1, 7, -1, -1, 10, 11, -1, -1, 14, -1, -1, 17, 18, 19, -1, -1, 22, -1, -1, 25, 26, -1, -1, 29, -1, -1], "children_right": [16, 9, 6, 5, -1, -1, 8, -1, -1, 13, 12, -1, -1, 15, -1, -1, 24, 21, 20, -1, -1, 23, -1, -1, 28, 27, -1, -1, 30, -1, -1], "feature": [3, 0, 3, 4, -2, -2, 2, -2, -2, 2, 2, -2, -2, 3, -2, -2, 3, 0, 2, -2, -2, 0, -2, -2, 3, 0, -2, -2, 3, -2, -2], "threshold": [-0.18577981740236282, -1.17730712890625, -2.218156099319458, -1.7702592611312866, -2.0, -2.0, -0.9760036170482635, -2.0, -2.0, -0.7425015568733215, -0.8408345878124237, -2.0, -2.0, -0.46396973729133606, -2.0, -2.0, 0.7276107966899872, 0.04102860018610954, -0.3446502387523651, -2.0, -2.0, 0.28493376076221466, -2.0, -2.0, 1.2652598023414612, 0.9434504210948944, -2.0, -2.0, 1.5778806805610657, -2.0, -2.0], "value": [2.910370357410232e-16, -0.39709026077125664, -0.7913507335072483, -1.0981859507813854, -1.3911098784022486, -1.0211007066706317, -0.6780577302060291, -0.8046694755772449, -0.6087227267884581, -0.2508853354649928, -0.3953515128413531, -0.4750295276756338, -0.3517541084980674, -0.17590921809245155, -0.2401274046614064, -0.13218619744975857, 0.25566085282533, 0.10729888165435852, 0.015915499549058288, -0.025221830202750414, 0.05448174619137895, 0.19694713625133028, 0.14039437403522959, 0.2375175961020112, 0.4901926557370173, 0.39793724974891187, 0.33239937789390317, 0.4450137492503971, 0.6382868600863443, 0.570159161480514, 0.7270593158454567]}, {"children_left": [1, 2, 3, 4, -1, -1, 7, -1, -1, 10, 11, -1, -1, 14, -1, -1, 17, 18, 19, -1, -1, 22, -1, -1, 25, 26, -1, -1, 29, -1, -1], "children_right": [16, 9, 6, 5, -1, -1, 8, -1, -1, 13, 12, -1, -1, 15, -1, -1, 24, 21, 20, -1, -1, 23, -1, -1, 28, 27, -1, -1, 30, -1, -1], "feature": [2, 0, 0, 3, -2, -2, 2, -2, -2, 2, 3, -2, -2, 2, -2, -2, 2, 0, 0, -2, -2, 2, -2, -2, 0, 3, -2, -2, 3, -2, -2], "threshold": [-0.44559556245803833, -1.103365182876587, -1.480456829071045, -2.601459503173828, -2.0, -2.0, -0.9420113861560822, -2.0, -2.0, -0.6879986226558685, -0.8330127596855164, -2.0, -2.0, -0.5737235844135284, -2.0, -2.0, 0.5363950729370117, 0.17538965493440628, -0.05979287810623646, -2.0, -2.0, 0.23821905255317688, -2.0, -2.0, 1.7055951952934265, 1.1057227849960327, -2.0, -2.0, 1.8065699934959412, -2.0, -2.0], "value": [2.503288581714341e-16, -0.35735921986750824, -0.7098451684392015, -0.9641718857918171, -1.1859846696727165, -0.866574260884221, -0.5771529680813151, -0.6602166818578131, -0.5132578036378549, -0.2069079003552, -0.31876901610830527, -0.37502125890083465, -0.26900741671491407, -0.1328377020862519, -0.1766797998656546, -0.08655993220799349, 0.25650937867790496, 0.12739827099285245, 0.050144607294925446, 0.014549314750657379, 0.10534310442879047, 0.22592468266557073, 0.1904686054617874, 0.2720175830304891, 0.4881715947527996, 0.417407525659235, 0.3665854272504181, 0.4754899238407399, 0.6425659273205769, 0.6068204305330064, 0.770653957476037]}, {"children_left": [1, 2, 3, 4, -1, -1, 7, -1, -1, 10, 11, -1, -1, 14, -1, -1, 17, 18, 19, -1, -1, 22, -1, -1, 25, 26, -1, -1, 29, -1, -1], "children_right": [16, 9, 6, 5, -1, -1, 8, -1, -1, 13, 12, -1, -1, 15, -1, -1, 24, 21, 20, -1, -1, 23, -1, -1, 28, 27, -1, -1, 30, -1, -1], "feature": [3, 0, 2, 0, -2, -2, 2, -2, -2, 0, 0, -2, -2, 0, -2, -2, 3, 2, 3, -2, -2, 0, -2, -2, 2, 2, -2, -2, 3, -2, -2], "threshold": [-0.20494289696216583, -1.1879653930664062, -1.0243120789527893, -1.8456814289093018, -2.0, -2.0, -0.978128582239151, -2.0, -2.0, -0.8298971354961395, -1.0115471482276917, -2.0, -2.0, -0.6373157501220703, -2.0, -2.0, 0.7133939266204834, -0.17319843918085098, 0.006639733212068677, -2.0, -2.0, 0.26819662749767303, -2.0, -2.0, 1.3692684769630432, 0.7626670897006989, -2.0, -2.0, 1.5778806805610657, -2.0, -2.0], "value": [1.9640373983249792e-16, -0.36486979226778027, -0.7173274984553571, -1.0008456377896686, -1.3594026978388503, -0.9470620787822913, -0.6170056953062932, -0.7332992740597962, -0.5533211164650892, -0.23232159506903333, -0.36180717509044713, -0.42659715668515547, -0.31861385402730796, -0.16505635869427304, -0.21969123833996562, -0.12408019896000368, 0.22681095195024242, 0.09166930845849104, 0.009401251775297777, -0.033561280328990355, 0.04233919305525201, 0.17445804904474244, 0.12246728011425323, 0.21079568324347145, 0.4399447877058894, 0.35231770772970267, 0.2979017685119784, 0.39683983981693166, 0.5697626839669068, 0.509521284918951, 0.6573865371275697]}, {"children_left": [1, 2, 3, 4, -1, -1, 7, -1, -1, 10, 11, -1, -1, 14, -1, -1, 17, 18, 19, -1, -1, 22, -1, -1, 25, 26, -1, -1, 29, -1, -1], "children_right": [16, 9, 6, 5, -1, -1, 8, -1, -1, 13, 12, -1, -1, 15, -1, -1, 24, 21, 20, -1, -1, 23, -1, -1, 28, 27, -1, -1, 30, -1, -1], "feature": [2, 2, 3, 0, -2, -2, 3, -2, -2, 3, 3, -2, -2, 3, -2, -2, 2, 2, 2, -2, -2, 0, -2, -2, 2, 2, -2, -2, 3, -2, -2], "threshold": [-0.43613988161087036, -0.8687039017677307, -1.9504067301750183, -1.6863270998001099, -2.0, -2.0, -1.4774968028068542, -2.0, -2.0, -0.5445676445960999, -0.7983326613903046, -2.0, -2.0, -0.30740630626678467, -2.0, -2.0, 0.5639439225196838, -0.01483936863951385, -0.22808673977851868, -2.0, -2.0, 0.49299679696559906, -2.0, -2.0, 1.8205331563949585, 1.1253851056098938, -2.0, -2.0, 1.8065699934959412, -2.0, -2.0], "value": [1.5833895041677828e-16, -0.3202787309169421, -0.6345069328313775, -0.861399382557286, -1.073709505626468, -0.7749026657513227, -0.5113367458373128, -0.5833382955818501, -0.45410474475832185, -0.18232488617401937, -0.27273493978867186, -0.3276584461053283, -0.2278807429634026, -0.11039279972148547, -0.1485850697076763, -0.07383734130613143, 0.2332894459765385, 0.11862116312506862, 0.05083489177716707, 0.01668782833262804, 0.10182160294778012, 0.21138132391693373, 0.17931314792547992, 0.250397604706536, 0.444520493334509, 0.3808792985179927, 0.33980774027604776, 0.43787656301701794, 0.5824097487702945, 0.5490262676344196, 0.6992519327458565]}, {"children_left": [1, 2, 3, 4, -1, -1, 7, -1, -1, 10, 11, -1, -1, 14, -1, -1, 17, 18, 19, -1, -1, 22, -1, -1, 25, 26, -1, -1, 29, -1, -1], "children_right": [16, 9, 6, 5, -1, -1, 8, -1, -1, 13, 12, -1, -1, 15, -1, -1, 24, 21, 20, -1, -1, 23, -1, -1, 28, 27, -1, -1, 30, -1, -1], "feature": [0, 2, 3, 4, -2, -2, 1, -2, -2, 3, 3, -2, -2, 0, -2, -2, 3, 2, 0, -2, -2, 2, -2, -2, 0, 3, -2, -2, 2, -2, -2], "threshold": [-0.42146261036396027, -0.9115486741065979, -2.2984594106674194, -1.8487110137939453, -2.0, -2.0, -1.3709786534309387, -2.0, -2.0, -0.7572518885135651, -1.0664238929748535, -2.0, -2.0, -0.6521293520927429, -2.0, -2.0, 0.6934860646724701, -0.18210308253765106, -0.2303953841328621, -2.0, -2.0, 0.034039443358778954, -2.0, -2.0, 1.397564709186554, 0.9315741658210754, -2.0, -2.0, 2.4296075105667114, -2.0, -2.0], "value": [1.5728159515523052e-16, -0.3310685168131057, -0.6527910470719565, -0.921471319209448, -1.2377470876655845, -0.8687586911334253, -0.5659866514583053, -0.6778675161887421, -0.5087452788055238, -0.2128286125299377, -0.3334622151798596, -0.3994836781483742, -0.2985096759612342, -0.15251181120497703, -0.20344570290192113, -0.11516029062721796, 0.20373447188498828, 0.07732125673210462, 0.0067530332630380985, -0.03691844609899371, 0.033936301029200755, 0.15162819402734684, 0.108555286036161, 0.18418329890440582, 0.39034445615829244, 0.31075016323773785, 0.26331163756127424, 0.35599921849836463, 0.5121333140005869, 0.459196565303757, 0.5965012572361601]}, {"children_left": [1, 2, 3, 4, -1, -1, 7, -1, -1, 10, 11, -1, -1, 14, -1, -1, 17, 18, 19, -1, -1, 22, -1, -1, 25, 26, -1, -1, 29, -1, -1], "children_right": [16, 9, 6, 5, -1, -1, 8, -1, -1, 13, 12, -1, -1, 15, -1, -1, 24, 21, 20, -1, -1, 23, -1, -1, 28, 27, -1, -1, 30, -1, -1], "feature": [3, 2, 2, 2, -2, -2, 0, -2, -2, 0, 3, -2, -2, 3, -2, -2, 0, 0, 2, -2, -2, 0, -2, -2, 3, 0, -2, -2, 1, -2, -2], "threshold": [-0.08849182352423668, -0.8808385133743286, -1.0147667527198792, -1.061454951763153, -2.0, -2.0, -1.3332340717315674, -2.0, -2.0, -0.7258729934692383, -0.8648779392242432, -2.0, -2.0, -0.3506328612565994, -2.0, -2.0, 0.7911182940006256, 0.18964265286922455, -0.2635089010000229, -2.0, -2.0, 0.4828645586967468, -2.0, -2.0, 1.4422566890716553, 1.2708860039710999, -2.0, -2.0, 2.8662644624710083, -2.0, -2.0], "value": [1.1657341758564144e-16, -0.28771973234222326, -0.5887542871373703, -0.8218368754779981, -1.0943387667537299, -0.7650656481288874, -0.49355153978697336, -0.5888905935599841, -0.4417368366494675, -0.17012810937536896, -0.2672887817107781, -0.31907646387305166, -0.22567367997323684, -0.1068169615955217, -0.146762676973728, -0.06936785342845339, 0.21162856345832995, 0.10891178783326327, 0.046490204063490054, 0.009091541957017937, 0.08347332547989027, 0.19106960764789135, 0.1600226983261302, 0.2259973806348728, 0.40308290855830575, 0.35128599574412595, 0.3131056188598673, 0.40894615675300633, 0.541583349344047, 0.5219896391011967, 0.7022517733354203]}, {"children_left": [1, 2, 3, 4, -1, -1, 7, -1, -1, 10, 11, -1, -1, 14, -1, -1, 17, 18, 19, -1, -1, 22, -1, -1, 25, 26, -1, -1, 29, -1, -1], "children_right": [16, 9, 6, 5, -1, -1, 8, -1, -1, 13, 12, -1, -1, 15, -1, -1, 24, 21, 20, -1, -1, 23, -1, -1, 28, 27, -1, -1, 30, -1, -1], "feature": [2, 2, 2, 3, -2, -2, 3, -2, -2, 2, 3, -2, -2, 0, -2, -2, 3, 0, 3, -2, -2, 0, -2, -2, 2, 0, -2, -2, 2, -2, -2], "threshold": [-0.5141288638114929, -0.9150067567825317, -1.0302566885948181, -3.247442841529846, -2.0, -2.0, -1.8433210849761963, -2.0, -2.0, -0.7530559003353119, -1.05510014295578, -2.0, -2.0, -0.6214102506637573, -2.0, -2.0, 0.7010698616504669, 0.03518653567880392, 0.020119862630963326, -2.0, -2.0, 0.30712394416332245, -2.0, -2.0, 1.4797192811965942, 0.9865731596946716, -2.0, -2.0, 2.7392579317092896, -2.0, -2.0], "value": [8.643879263153005e-17, -0.3004282211543361, -0.5942874059587665, -0.8414092080359394, -1.1211427949446187, -0.7920444574049956, -0.5170618428096498, -0.6138570809095358, -0.46276207509507983, -0.19494030866043813, -0.3020671748149611, -0.3593015214892934, -0.2665818798768749, -0.13822608540216103, -0.1766278216657346, -0.09931906313511946, 0.18301949104804396, 0.07036831977123899, 0.0068880177516308, -0.02657044206675892, 0.038378332874821126, 0.14019665199280798, 0.10613948658535961, 0.17335757620532335, 0.35444518646926887, 0.28845759275980926, 0.2441217683538227, 0.3334651720810378, 0.4730445102984329, 0.43332532400281376, 0.5611174886061108]}, {"children_left": [1, 2, 3, 4, -1, -1, 7, -1, -1, 10, 11, -1, -1, 14, -1, -1, 17, 18, 19, -1, -1, 22, -1, -1, 25, 26, -1, -1, 29, -1, -1], "children_right": [16, 9, 6, 5, -1, -1, 8, -1, -1, 13, 12, -1, -1, 15, -1, -1, 24, 21, 20, -1, -1, 23, -1, -1, 28, 27, -1, -1, 30, -1, -1], "feature": [3, 0, 0, 0, -2, -2, 0, -2, -2, 0, 3, -2, -2, 3, -2, -2, 3, 0, 3, -2, -2, 3, -2, -2, 2, 3, -2, -2, 0, -2, -2], "threshold": [-0.1456441804766655, -1.145135760307312, -1.5660823583602905, -1.7833877205848694, -2.0, -2.0, -1.3502578139305115, -2.0, -2.0, -0.7593561112880707, -0.9579834043979645, -2.0, -2.0, -0.40310679376125336, -2.0, -2.0, 0.7825297713279724, 0.1211208887398243, 0.1002119593322277, -2.0, -2.0, 0.5643050074577332, -2.0, -2.0, 1.665999710559845, 1.0421462655067444, -2.0, -2.0, 2.5608227252960205, -2.0, -2.0], "value": [6.211962161593138e-17, -0.2715400968616088, -0.5432251603726895, -0.7711419890708279, -0.9901466554196044, -0.7135091821369391, -0.46508224767618467, -0.5492273916917404, -0.4089854849991476, -0.16687453960734017, -0.25420265803045644, -0.30919211334911073, -0.21937600299530888, -0.10825703546031686, -0.14291589475153677, -0.07544664866462865, 0.18282978633311525, 0.08449976736353762, 0.02413464064508272, -0.004839403048585158, 0.059129264846525746, 0.1538380885941952, 0.1258524534990324, 0.19056923465659653, 0.35276971042184174, 0.29385218038506067, 0.2522728372940494, 0.33207835064615193, 0.4606341115661023, 0.43438822232110436, 0.576553455731511]}, {"children_left": [1, 2, 3, 4, -1, -1, 7, -1, -1, 10, 11, -1, -1, 14, -1, -1, 17, 18, 19, -1, -1, 22, -1, -1, 25, 26, -1, -1, 29, -1, -1], "children_right": [16, 9, 6, 5, -1, -1, 8, -1, -1, 13, 12, -1, -1, 15, -1, -1, 24, 21, 20, -1, -1, 23, -1, -1, 28, 27, -1, -1, 30, -1, -1], "feature": [2, 3, 2, 0, -2, -2, 0, -2, -2, 2, 2, -2, -2, 2, -2, -2, 0, 0, 3, -2, -2, 2, -2, -2, 0, 3, -2, -2, 4, -2, -2], "threshold": [-0.42104652523994446, -1.1485579013824463, -1.0034365057945251, -1.7291421294212341, -2.0, -2.0, -1.2740078568458557, -2.0, -2.0, -0.6712509095668793, -0.7747846841812134, -2.0, -2.0, -0.5539115071296692, -2.0, -2.0, 0.7911182940006256, 0.20427916198968887, 0.1835693120956421, -2.0, -2.0, 0.2751159965991974, -2.0, -2.0, 1.8433433771133423, 1.1632421612739563, -2.0, -2.0, 3.2982170581817627, -2.0, -2.0], "value": [1.3322676295501878e-16, -0.24509489089734415, -0.4915353155090798, -0.6798238113708542, -0.8801539359981888, -0.6204667374071997, -0.4012600092739826, -0.46419816302754213, -0.3521375478077898, -0.13905677990902746, -0.2102724674552051, -0.25561781787328114, -0.17697197574193033, -0.08259291335455818, -0.11285897544521749, -0.054008299157824416, 0.18292945079448372, 0.0946636470868774, 0.04150527663194794, 0.015264793068007546, 0.07977264849602766, 0.16436017723889598, 0.13978470763164882, 0.1960167143600958, 0.3458817037931415, 0.3022164463119809, 0.2687212707886251, 0.3524592095970151, 0.46993073072825625, 0.4559161999176831, 0.6614626518060897]}, {"children_left": [1, 2, 3, 4, -1, -1, 7, -1, -1, 10, 11, -1, -1, 14, -1, -1, 17, 18, 19, -1, -1, 22, -1, -1, 25, 26, -1, -1, 29, -1, -1], "children_right": [16, 9, 6, 5, -1, -1, 8, -1, -1, 13, 12, -1, -1, 15, -1, -1, 24, 21, 20, -1, -1, 23, -1, -1, 28, 27, -1, -1, 30, -1, -1], "feature": [2, 2, 0, 0, -2, -2, 0, -2, -2, 2, 2, -2, -2, 3, -2, -2, 3, 2, 0, -2, -2, 2, -2, -2, 2, 0, -2, -2, 0, -2, -2], "threshold": [-0.5215215086936951, -0.9206899404525757, -1.6267067193984985, -1.9045237302780151, -2.0, -2.0, -1.4252514839172363, -2.0, -2.0, -0.760589599609375, -0.8526218235492706, -2.0, -2.0, -0.5049777030944824, -2.0, -2.0, 0.6799138486385345, -0.19405613094568253, -0.24339944869279861, -2.0, -2.0, 0.026492001488804817, -2.0, -2.0, 1.2928948402404785, 0.900747686624527, -2.0, -2.0, 1.9797657132148743, -2.0, -2.0], "value": [9.463329590852524e-17, -0.2590474911985157, -0.5208216485739366, -0.7391703500583731, -1.0388692001274575, -0.7017079937997376, -0.45639088420147994, -0.530879141016133, -0.40466292808019294, -0.1717894387400424, -0.2654470965573926, -0.3160731804006965, -0.232689042305843, -0.12036954817365415, -0.15989667286857442, -0.09194554839303735, 0.1562194794250595, 0.05731227683783248, 0.001331232673218105, -0.03313714702598471, 0.022296535789228068, 0.11365448902931533, 0.08097150287005472, 0.14056988939576537, 0.3006332822636863, 0.23584236113587473, 0.20134261767348846, 0.2720388132931325, 0.3926658406838736, 0.34373870349423713, 0.4541383976657244]}, {"children_left": [1, 2, 3, 4, -1, -1, 7, -1, -1, 10, 11, -1, -1, 14, -1, -1, 17, 18, 19, -1, -1, 22, -1, -1, 25, 26, -1, -1, 29, -1, -1], "children_right": [16, 9, 6, 5, -1, -1, 8, -1, -1, 13, 12, -1, -1, 15, -1, -1, 24, 21, 20, -1, -1, 23, -1, -1, 28, 27, -1, -1, 30, -1, -1], "feature": [0, 3, 3, 0, -2, -2, 3, -2, -2, 2, 2, -2, -2, 3, -2, -2, 3, 2, 3, -2, -2, 0, -2, -2, 2, 3, -2, -2, 8, -2, -2], "threshold": [-0.29518313705921173, -1.1485579013824463, -2.063893675804138, -1.7401021718978882, -2.0, -2.0, -1.5564680695533752, -2.0, -2.0, -0.6829324066638947, -0.7874952554702759, -2.0, -2.0, -0.318876251578331, -2.0, -2.0, 0.8604840040206909, -0.004059492493979633, 0.17105738818645477, -2.0, -2.0, 0.45569010078907013, -2.0, -2.0, 1.9436719417572021, 1.1374298930168152, -2.0, -2.0, 1.8984084725379944, -2.0, -2.0], "value": [3.753611178494577e-17, -0.22124071675068752, -0.44366640507206967, -0.6215525401369985, -0.8133665984280273, -0.5699102936740291, -0.36539650564350096, -0.43593890179956474, -0.32571640780571537, -0.12553563970403694, -0.19727288641891141, -0.23714607631191598, -0.17091603208285738, -0.07958629213503256, -0.109714546986552, -0.05061681631626396, 0.16512560772036763, 0.08650619719131272, 0.03781913453440743, 0.013231456588990921, 0.07158621224611281, 0.1497638406433502, 0.12225473490378777, 0.17388141279858296, 0.31431304336285154, 0.2740082611874538, 0.24125711244093706, 0.313309639683274, 0.42268812432336544, 0.41205187839702395, 0.6513674117397095]}, {"children_left": [1, 2, 3, 4, -1, -1, 7, -1, -1, 10, 11, -1, -1, 14, -1, -1, 17, 18, 19, -1, -1, 22, -1, -1, 25, 26, -1, -1, 29, -1, -1], "children_right": [16, 9, 6, 5, -1, -1, 8, -1, -1, 13, 12, -1, -1, 15, -1, -1, 24, 21, 20, -1, -1, 23, -1, -1, 28, 27, -1, -1, 30, -1, -1], "feature": [2, 0, 2, 2, -2, -2, 2, -2, -2, 3, 3, -2, -2, 0, -2, -2, 2, 3, 2, -2, -2, 3, -2, -2, 3, 3, -2, -2, 2, -2, -2], "threshold": [-0.5215215086936951, -1.2299712896347046, -1.0343489050865173, -1.0759509205818176, -2.0, -2.0, -0.9853836297988892, -2.0, -2.0, -0.7233566045761108, -1.0172032117843628, -2.0, -2.0, -0.609018474817276, -2.0, -2.0, 0.41559189558029175, 0.2717610150575638, -0.33636927604675293, -2.0, -2.0, 0.5070174038410187, -2.0, -2.0, 1.3297146558761597, 1.0287545323371887, -2.0, -2.0, 2.9820979833602905, -2.0, -2.0], "value": [5.921189464667501e-17, -0.23387219033923928, -0.47245347628208434, -0.668982445279314, -0.9462574101996832, -0.634323074664268, -0.41349478558291514, -0.47851909711911417, -0.36704884877134464, -0.15568168486217265, -0.23515006697317906, -0.2775459663470362, -0.1995375114991388, -0.10560571805249733, -0.13230755743664752, -0.07497713758244261, 0.14103742776183154, 0.057927143329307325, 0.006535920484460673, -0.018945648646652068, 0.035477949621033164, 0.11491869174057957, 0.08801612773970992, 0.1432371801625477, 0.28125939483003887, 0.23212383912790366, 0.1988755824354247, 0.2680973627623894, 0.3730272709207911, 0.3462638806817648, 0.4600082891976267]}, {"children_left": [1, 2, 3, 4, -1, -1, 7, -1, -1, 10, 11, -1, -1, 14, -1, -1, 17, 18, 19, -1, -1, 22, -1, -1, 25, 26, -1, -1, 29, -1, -1], "children_right": [16, 9, 6, 5, -1, -1, 8, -1, -1, 13, 12, -1, -1, 15, -1, -1, 24, 21, 20, -1, -1, 23, -1, -1, 28, 27, -1, -1, 30, -1, -1], "feature": [2, 2, 0, 0, -2, -2, 0, -2, -2, 3, 3, -2, -2, 3, -2, -2, 2, 3, 0, -2, -2, 2, -2, -2, 2, 0, -2, -2, 1, -2, -2], "threshold": [-0.41333189606666565, -0.8863960206508636, -1.5931764841079712, -1.8456814289093018, -2.0, -2.0, -1.3734434247016907, -2.0, -2.0, -0.5984633564949036, -0.9049080312252045, -2.0, -2.0, -0.3570285588502884, -2.0, -2.0, 0.6292903125286102, 0.4164526164531708, -0.09783772379159927, -2.0, -2.0, 0.28899915516376495, -2.0, -2.0, 2.072326898574829, 1.3091604113578796, -2.0, -2.0, 3.412408709526062, -2.0, -2.0], "value": [7.348619067756988e-17, -0.19929014509071588, -0.41792212647336263, -0.6166448483872037, -0.8424642242197916, -0.5790082857484393, -0.3622797643374874, -0.43445475710400183, -0.31677813846294556, -0.11978760640611703, -0.1907732897806587, -0.232742054507386, -0.1623428362561013, -0.07364691221266506, -0.10351037041151492, -0.04795044818109655, 0.14946760881803714, 0.08070686973243789, 0.03481736622772209, 0.00661603166898898, 0.058906006163306636, 0.13782806989914706, 0.11589176716243016, 0.16490569358978183, 0.2882864594248127, 0.25228453495395264, 0.22502231658704133, 0.28827066319827543, 0.3854079300903894, 0.37514496928051344, 0.5957986266928428]}, {"children_left": [1, 2, 3, 4, -1, -1, 7, -1, -1, 10, 11, -1, -1, 14, -1, -1, 17, 18, 19, -1, -1, 22, -1, -1, 25, 26, -1, -1, 29, -1, -1], "children_right": [16, 9, 6, 5, -1, -1, 8, -1, -1, 13, 12, -1, -1, 15, -1, -1, 24, 21, 20, -1, -1, 23, -1, -1, 28, 27, -1, -1, 30, -1, -1], "feature": [2, 2, 3, 4, -2, -2, 0, -2, -2, 3, 2, -2, -2, 3, -2, -2, 2, 2, 3, -2, -2, 0, -2, -2, 3, 2, -2, -2, 0, -2, -2], "threshold": [-0.46306371688842773, -0.9077141582965851, -2.3407301902770996, -1.893496572971344, -2.0, -2.0, -1.380955994129181, -2.0, -2.0, -0.6776730418205261, -0.8260846734046936, -2.0, -2.0, -0.4187892973423004, -2.0, -2.0, 0.4910019785165787, -0.08417019993066788, 0.07818436250090599, -2.0, -2.0, 0.3607451319694519, -2.0, -2.0, 1.3761996030807495, 0.973983496427536, -2.0, -2.0, 2.5608227252960205, -2.0, -2.0], "value": [7.98303222468565e-17, -0.19789889331760413, -0.4095450759762052, -0.5918920384453564, -0.8568213284787096, -0.5624554506638726, -0.35591361642645486, -0.4163302970225848, -0.3109883923934352, -0.12457265680596291, -0.19610351010466623, -0.2374556325502837, -0.16901074022650306, -0.08111087252320645, -0.11072816918232221, -0.05631499625045836, 0.1359064689048608, 0.06366433472546053, 0.019124508716482774, -0.005524690578989073, 0.04125276717491773, 0.11392211137072607, 0.0884261168149287, 0.13619076484351098, 0.26025768347595984, 0.21851160580334053, 0.1876405291080684, 0.24938268249861248, 0.3437498388211979, 0.3217799081691379, 0.4334603889837765]}, {"children_left": [1, 2, 3, 4, -1, -1, 7, -1, -1, 10, 11, -1, -1, 14, -1, -1, 17, 18, 19, -1, -1, 22, -1, -1, 25, 26, -1, -1, 29, -1, -1], "children_right": [16, 9, 6, 5, -1, -1, 8, -1, -1, 13, 12, -1, -1, 15, -1, -1, 24, 21, 20, -1, -1, 23, -1, -1, 28, 27, -1, -1, 30, -1, -1], "feature": [2, 0, 2, 2, -2, -2, 3, -2, -2, 3, 0, -2, -2, 3, -2, -2, 0, 3, 3, -2, -2, 0, -2, -2, 3, 0, -2, -2, 2, -2, -2], "threshold": [-0.5258225500583649, -1.2366544604301453, -1.0369656085968018, -1.0759509205818176, -2.0, -2.0, -1.889398455619812, -2.0, -2.0, -0.7787735760211945, -1.060701608657837, -2.0, -2.0, -0.5132645070552826, -2.0, -2.0, 0.549065113067627, 0.2100292444229126, -0.01675465377047658, -2.0, -2.0, 0.29750625789165497, -2.0, -2.0, 1.2111670970916748, 0.8811011612415314, -2.0, -2.0, 2.6786693334579468, -2.0, -2.0], "value": [1.1736643403180226e-16, -0.20119610920441866, -0.40742180321313093, -0.5810839683384306, -0.813980262054774, -0.5500311291762515, -0.3582175230942959, -0.41682746824793604, -0.31914422632520295, -0.13447603173101155, -0.20893803883048268, -0.24729578572348537, -0.18362192588110107, -0.09460282792935909, -0.1259373626928908, -0.07197233060014181, 0.1207176655226514, 0.04378318882570842, 0.00017208894696825184, -0.02499994711131317, 0.017409461465139223, 0.08711473037189253, 0.06601171193960509, 0.11173491854289448, 0.2325243115635358, 0.1826648808700517, 0.15449377373585227, 0.21039581445527925, 0.30530761843793164, 0.2779177946183366, 0.37720590596436904]}, {"children_left": [1, 2, 3, 4, -1, -1, 7, -1, -1, 10, 11, -1, -1, 14, -1, -1, 17, 18, 19, -1, -1, 22, -1, -1, 25, 26, -1, -1, 29, -1, -1], "children_right": [16, 9, 6, 5, -1, -1, 8, -1, -1, 13, 12, -1, -1, 15, -1, -1, 24, 21, 20, -1, -1, 23, -1, -1, 28, 27, -1, -1, 30, -1, -1], "feature": [0, 2, 0, 2, -2, -2, 0, -2, -2, 2, 3, -2, -2, 3, -2, -2, 0, 3, 0, -2, -2, 3, -2, -2, 0, 3, -2, -2, 2, -2, -2], "threshold": [-0.45401936769485474, -0.9230533242225647, -1.6267067193984985, -1.0697431564331055, -2.0, -2.0, -1.4407082200050354, -2.0, -2.0, -0.7660724520683289, -1.0819680094718933, -2.0, -2.0, -0.5217935740947723, -2.0, -2.0, 0.5686967074871063, 0.2233491912484169, -0.22075065970420837, -2.0, -2.0, 0.49108096957206726, -2.0, -2.0, 1.4338370561599731, 0.9647333920001984, -2.0, -2.0, 2.8833152055740356, -2.0, -2.0], "value": [1.6811948658609513e-16, -0.19260830694942524, -0.3853901774396361, -0.54603137369183, -0.7261061836603505, -0.5100164116981258, -0.33719781856397796, -0.39201470829997936, -0.3006532254066437, -0.12834768345268852, -0.19844773942068347, -0.23248121948136347, -0.1738277751214682, -0.09123588911669113, -0.12079027255411139, -0.06998329877966979, 0.11381399956102434, 0.04168900468934936, 0.0012330350071473458, -0.02153657767713592, 0.020676749209456655, 0.08560502441016074, 0.06640983741605845, 0.10931672599111071, 0.22217240417865933, 0.17764942525097172, 0.15001690141931348, 0.2057070648338861, 0.2950787821727477, 0.2719215117528609, 0.36942580825764754]}, {"children_left": [1, 2, 3, 4, -1, -1, 7, -1, -1, 10, 11, -1, -1, 14, -1, -1, 17, 18, 19, -1, -1, 22, -1, -1, 25, 26, -1, -1, 29, -1, -1], "children_right": [16, 9, 6, 5, -1, -1, 8, -1, -1, 13, 12, -1, -1, 15, -1, -1, 24, 21, 20, -1, -1, 23, -1, -1, 28, 27, -1, -1, 30, -1, -1], "feature": [2, 3, 2, 4, -2, -2, 2, -2, -2, 2, 0, -2, -2, 2, -2, -2, 0, 3, 0, -2, -2, 2, -2, -2, 0, 3, -2, -2, 0, -2, -2], "threshold": [-0.41333189606666565, -1.1890689730644226, -1.0181728601455688, -1.7702592611312866, -2.0, -2.0, -0.9496004581451416, -2.0, -2.0, -0.6912975907325745, -0.9233142137527466, -2.0, -2.0, -0.5641151070594788, -2.0, -2.0, 0.7653855979442596, 0.3573499172925949, -0.10348726809024811, -2.0, -2.0, 0.19401785731315613, -2.0, -2.0, 1.8433433771133423, 1.0884795188903809, -2.0, -2.0, 3.4247751235961914, -2.0, -2.0], "value": [2.056555983710409e-16, -0.16246311207768463, -0.3334105745704201, -0.4821736820480123, -0.6405515962756415, -0.44446465485095776, -0.2825179325386124, -0.33348536473490753, -0.24340339155075766, -0.09487923155730105, -0.1509463787387949, -0.18364792675016917, -0.13003883164955568, -0.05939369536648197, -0.08152494212029698, -0.036112773456624635, 0.12184733405826395, 0.06229631489164758, 0.023557706245149707, 0.004987736725046906, 0.042841905362179536, 0.10363483015871597, 0.08262280195383968, 0.12436669798752725, 0.22848520558918134, 0.19883174278880195, 0.1679995196442497, 0.2243784419657166, 0.3147498246448305, 0.3055948596184933, 0.5070040901979107]}, {"children_left": [1, 2, 3, 4, -1, -1, 7, -1, -1, 10, 11, -1, -1, 14, -1, -1, 17, 18, 19, -1, -1, 22, -1, -1, 25, 26, -1, -1, 29, -1, -1], "children_right": [16, 9, 6, 5, -1, -1, 8, -1, -1, 13, 12, -1, -1, 15, -1, -1, 24, 21, 20, -1, -1, 23, -1, -1, 28, 27, -1, -1, 30, -1, -1], "feature": [0, 2, 0, 5, -2, -2, 3, -2, -2, 3, 2, -2, -2, 2, -2, -2, 0, 3, 3, -2, -2, 0, -2, -2, 0, 2, -2, -2, 1, -2, -2], "threshold": [-0.3682457059621811, -0.9170224070549011, -1.6467408537864685, -1.655776858329773, -2.0, -2.0, -1.799798607826233, -2.0, -2.0, -0.6942189931869507, -0.8292663991451263, -2.0, -2.0, -0.6178435385227203, -2.0, -2.0, 0.6530001163482666, 0.28462521731853485, 0.057413842529058456, -2.0, -2.0, 0.34977954626083374, -2.0, -2.0, 1.751284658908844, 1.0151951313018799, -2.0, -2.0, 3.0527584552764893, -2.0, -2.0], "value": [1.8397981550931167e-16, -0.1637246193207012, -0.3408408427192268, -0.5056929791976541, -0.7049483599552357, -0.47722792480371384, -0.30147316833631904, -0.3524786908632021, -0.26254790114475013, -0.10561929701999907, -0.16648748314218975, -0.19802662902086246, -0.14208927595302784, -0.06963433163958427, -0.09261141797354959, -0.04694445888479364, 0.10914974621380107, 0.04835406870132614, 0.010948007618799094, -0.008544778220967927, 0.02858433766430259, 0.08747151819939365, 0.06831150514914963, 0.10792612672600553, 0.20877826485989875, 0.1788431446954806, 0.15246199053937048, 0.2092829379525308, 0.29095310452692863, 0.28120067062425474, 0.4469920469697117]}, {"children_left": [1, 2, 3, 4, -1, -1, 7, -1, -1, 10, 11, -1, -1, 14, -1, -1, 17, 18, 19, -1, -1, 22, -1, -1, 25, 26, -1, -1, 29, -1, -1], "children_right": [16, 9, 6, 5, -1, -1, 8, -1, -1, 13, 12, -1, -1, 15, -1, -1, 24, 21, 20, -1, -1, 23, -1, -1, 28, 27, -1, -1, 30, -1, -1], "feature": [0, 3, 2, 4, -2, -2, 3, -2, -2, 0, 3, -2, -2, 2, -2, -2, 0, 2, 3, -2, -2, 3, -2, -2, 2, 3, -2, -2, 2, -2, -2], "threshold": [-0.46152257919311523, -1.4508505463600159, -1.0399731397628784, -1.893496572971344, -2.0, -2.0, -1.9113677144050598, -2.0, -2.0, -0.8805209100246429, -1.1000797748565674, -2.0, -2.0, -0.6651266515254974, -2.0, -2.0, 0.5388126969337463, -0.2061522975564003, -0.03532611019909382, -2.0, -2.0, 0.4257920980453491, -2.0, -2.0, 1.4128903150558472, 0.9190114736557007, -2.0, -2.0, 3.199452519416809, -2.0, -2.0], "value": [1.5754593397061746e-16, -0.16781162839038408, -0.3397768918841855, -0.4935980180098513, -0.669700941957474, -0.46424753068524743, -0.3026476545435075, -0.3468845796951354, -0.2667051528578098, -0.11489923962306063, -0.1761170609939354, -0.20423740476719732, -0.1523709929187364, -0.0812497086708579, -0.10499482422366065, -0.06179587906133283, 0.09616171963943386, 0.03345073548764521, -0.0024709090001101106, -0.025274167152435766, 0.011439078472808539, 0.07005443651630723, 0.0496212373205944, 0.08760294876674297, 0.18920731938092483, 0.1518168801487577, 0.12610617322166848, 0.17571697391196753, 0.254880270339988, 0.23915573679231245, 0.3413652048522027]}, {"children_left": [1, 2, 3, 4, -1, -1, 7, -1, -1, 10, 11, -1, -1, 14, -1, -1, 17, 18, 19, -1, -1, 22, -1, -1, 25, 26, -1, -1, 29, -1, -1], "children_right": [16, 9, 6, 5, -1, -1, 8, -1, -1, 13, 12, -1, -1, 15, -1, -1, 24, 21, 20, -1, -1, 23, -1, -1, 28, 27, -1, -1, 30, -1, -1], "feature": [3, 0, 0, 3, -2, -2, 3, -2, -2, 3, 2, -2, -2, 0, -2, -2, 0, 3, 0, -2, -2, 0, -2, -2, 2, 2, -2, -2, 3, -2, -2], "threshold": [-0.19844049960374832, -1.2417413592338562, -1.6549431085586548, -3.5525556802749634, -2.0, -2.0, -1.9113677144050598, -2.0, -2.0, -0.7021459341049194, -0.831532895565033, -2.0, -2.0, -0.6017769277095795, -2.0, -2.0, 0.6468200981616974, 0.27642324566841125, -0.17724454402923584, -2.0, -2.0, 0.34385988116264343, -2.0, -2.0, 1.8736420273780823, 0.9609712958335876, -2.0, -2.0, 2.151234745979309, -2.0, -2.0], "value": [1.490870918782353e-16, -0.15268841981536213, -0.3171008417813715, -0.46891811710935866, -0.6362158948596004, -0.441035154150985, -0.28281952154601947, -0.3295403507103786, -0.24907670048287128, -0.10209998228735931, -0.1546410205496308, -0.1839662516341974, -0.12966026814425918, -0.06635777938785489, -0.08500237682401418, -0.04640018213224771, 0.09539334545524586, 0.04062350773520961, 0.006066022909798312, -0.011229866658939044, 0.024205614408717976, 0.0776022176120828, 0.05980722310655681, 0.09656793544034076, 0.1881027061792655, 0.16161794993464831, 0.1337803696607123, 0.18615897464982875, 0.26539495399518925, 0.25786980211851984, 0.44223602309691934]}, {"children_left": [1, 2, 3, 4, -1, -1, 7, -1, -1, 10, 11, -1, -1, 14, -1, -1, 17, 18, 19, -1, -1, 22, -1, -1, 25, 26, -1, -1, 29, -1, -1], "children_right": [16, 9, 6, 5, -1, -1, 8, -1, -1, 13, 12, -1, -1, 15, -1, -1, 24, 21, 20, -1, -1, 23, -1, -1, 28, 27, -1, -1, 30, -1, -1], "feature": [2, 2, 3, 3, -2, -2, 3, -2, -2, 0, 2, -2, -2, 2, -2, -2, 0, 0, 2, -2, -2, 2, -2, -2, 3, 0, -2, -2, 7, -2, -2], "threshold": [-0.40870019793510437, -0.8896953463554382, -2.218156099319458, -2.8349146842956543, -2.0, -2.0, -1.6128675937652588, -2.0, -2.0, -0.7505711615085602, -0.8067168295383453, -2.0, -2.0, -0.5909161567687988, -2.0, -2.0, 0.8444827795028687, 0.1657182201743126, -0.27947668731212616, -2.0, -2.0, 0.22141741961240768, -2.0, -2.0, 1.4934701323509216, 1.3091604113578796, -2.0, -2.0, 0.34768204391002655, -2.0, -2.0], "value": [1.3587015110888822e-16, -0.13212316111148475, -0.2789075075963624, -0.4007415567290232, -0.5128660965532134, -0.3633667101209597, -0.23772416704447696, -0.2779227059140499, -0.20474075053610954, -0.07970018022402835, -0.13020469675683513, -0.15659321372496288, -0.11122348279730467, -0.05023921224655775, -0.0716870944782401, -0.03209100420436504, 0.09957507549320688, 0.054365514769931456, 0.0200171966493246, 0.0038074201664938614, 0.03525048057294866, 0.08850180623547287, 0.06951309776134765, 0.10613417839001771, 0.19318205058050147, 0.16814369550915792, 0.15018253809176416, 0.19077475385507411, 0.2589805185586831, 0.2511198501009568, 0.42012422194207355]}, {"children_left": [1, 2, 3, 4, -1, -1, 7, -1, -1, 10, 11, -1, -1, 14, -1, -1, 17, 18, 19, -1, -1, 22, -1, -1, 25, 26, -1, -1, 29, -1, -1], "children_right": [16, 9, 6, 5, -1, -1, 8, -1, -1, 13, 12, -1, -1, 15, -1, -1, 24, 21, 20, -1, -1, 23, -1, -1, 28, 27, -1, -1, 30, -1, -1], "feature": [0, 2, 3, 1, -2, -2, 0, -2, -2, 0, 3, -2, -2, 3, -2, -2, 3, 0, 3, -2, -2, 2, -2, -2, 3, 2, -2, -2, 2, -2, -2], "threshold": [-0.4683844596147537, -0.9317021667957306, -2.521638035774231, -1.8713243007659912, -2.0, -2.0, -1.4681340456008911, -2.0, -2.0, -0.8878198266029358, -1.1207416653633118, -2.0, -2.0, -0.5292507410049438, -2.0, -2.0, 0.6639133095741272, -0.022965271025896072, -0.02889247704297304, -2.0, -2.0, 0.020975567400455475, -2.0, -2.0, 1.1939806938171387, 0.6889331638813019, -2.0, -2.0, 2.632870316505432, -2.0, -2.0], "value": [1.181594504779631e-16, -0.14548743557482635, -0.2943764039481756, -0.430717174509259, -0.5787617952889597, -0.40379997073113166, -0.263281140486876, -0.3017597281101285, -0.2332197439062099, -0.10056403994493684, -0.15259591788145277, -0.17680085803533294, -0.13161830308142328, -0.07103243354853589, -0.0909483323263726, -0.054558788880448635, 0.08166766829665001, 0.027951595931577748, -0.0029758050385527675, -0.020960316285631598, 0.010416916102888914, 0.05985155668064323, 0.04257540562052324, 0.0752766915557504, 0.16236669794278188, 0.1260974952769969, 0.10758905103249765, 0.14551619087778303, 0.21274059053414984, 0.1913880048129008, 0.26530080154030167]}, {"children_left": [1, 2, 3, 4, -1, -1, 7, -1, -1, 10, 11, -1, -1, 14, -1, -1, 17, 18, 19, -1, -1, 22, -1, -1, 25, 26, -1, -1, 29, -1, -1], "children_right": [16, 9, 6, 5, -1, -1, 8, -1, -1, 13, 12, -1, -1, 15, -1, -1, 24, 21, 20, -1, -1, 23, -1, -1, 28, 27, -1, -1, 30, -1, -1], "feature": [3, 2, 2, 4, -2, -2, 2, -2, -2, 0, 0, -2, -2, 0, -2, -2, 2, 3, 2, -2, -2, 3, -2, -2, 3, 3, -2, -2, 2, -2, -2], "threshold": [-0.2681528925895691, -0.9342035949230194, -1.0457969307899475, -1.893496572971344, -2.0, -2.0, -1.0061137080192566, -2.0, -2.0, -0.8999587595462799, -1.0726506114006042, -2.0, -2.0, -0.698195219039917, -2.0, -2.0, 0.3216157406568527, 0.20112959295511246, -0.39058154821395874, -2.0, -2.0, 0.45674557983875275, -2.0, -2.0, 1.3297146558761597, 1.00054469704628, -2.0, -2.0, 3.596438407897949, -2.0, -2.0], "value": [7.11071413390874e-17, -0.13821306379608528, -0.2810053860192782, -0.4231201245267775, -0.5498237055245117, -0.39496377319394776, -0.25405259078509723, -0.2956542741569608, -0.22671434171215846, -0.09592692545531145, -0.1473644604949922, -0.16842827543581423, -0.12681439713809264, -0.06851613375653426, -0.09036988922321446, -0.05386691305908929, 0.07758428488181743, 0.02674973812562872, -0.0026463876275255, -0.020361562923311274, 0.009772498146839784, 0.057255151643052914, 0.04180366069344764, 0.07290223108569117, 0.15454873884913145, 0.12675968569866333, 0.10703606887008901, 0.15066710003632913, 0.21421347061337176, 0.20423632008496706, 0.3173106927402203]}, {"children_left": [1, 2, 3, 4, -1, -1, 7, -1, -1, 10, 11, -1, -1, 14, -1, -1, 17, 18, 19, -1, -1, 22, -1, -1, 25, 26, -1, -1, 29, -1, -1], "children_right": [16, 9, 6, 5, -1, -1, 8, -1, -1, 13, 12, -1, -1, 15, -1, -1, 24, 21, 20, -1, -1, 23, -1, -1, 28, 27, -1, -1, 30, -1, -1], "feature": [0, 3, 0, 0, -2, -2, 3, -2, -2, 0, 3, -2, -2, 2, -2, -2, 2, 2, 0, -2, -2, 2, -2, -2, 3, 0, -2, -2, 7, -2, -2], "threshold": [-0.32973720133304596, -1.3509228825569153, -1.6159930229187012, -1.8184816241264343, -2.0, -2.0, -1.7202637195587158, -2.0, -2.0, -0.7838475406169891, -0.96954146027565, -2.0, -2.0, -0.5970968902111053, -2.0, -2.0, 0.5047067403793335, -0.07450486719608307, -0.11719267815351486, -2.0, -2.0, 0.17933518439531326, -2.0, -2.0, 1.4934701323509216, 1.1793217658996582, -2.0, -2.0, 0.34768204391002655, -2.0, -2.0], "value": [1.3983523333969233e-16, -0.11613513316084811, -0.2479836470264095, -0.3614215214808791, -0.4712073378326091, -0.33214530378708434, -0.2158146975542464, -0.25034362080780637, -0.18608145808590298, -0.0733465588497604, -0.11792645566111659, -0.1417226067456379, -0.09997497326402155, -0.046328439570150544, -0.06343028540985718, -0.0290180346348377, 0.08336080110318572, 0.040275668865629596, 0.01377260229456676, -3.769594697733685e-05, 0.02775339804526572, 0.06986470894154224, 0.0565170798370506, 0.08517522467904737, 0.15732361144432364, 0.13663866513086612, 0.11552366149428529, 0.15684874004016505, 0.2232268124895256, 0.21606775767774916, 0.36998743613094387]}, {"children_left": [1, 2, 3, 4, -1, -1, 7, -1, -1, 10, 11, -1, -1, 14, -1, -1, 17, 18, 19, -1, -1, 22, -1, -1, 25, 26, -1, -1, 29, -1, -1], "children_right": [16, 9, 6, 5, -1, -1, 8, -1, -1, 13, 12, -1, -1, 15, -1, -1, 24, 21, 20, -1, -1, 23, -1, -1, 28, 27, -1, -1, 30, -1, -1], "feature": [3, 2, 3, 4, -2, -2, 3, -2, -2, 2, 0, -2, -2, 0, -2, -2, 0, 3, 3, -2, -2, 2, -2, -2, 2, 2, -2, -2, 2, -2, -2], "threshold": [-0.254948228597641, -0.9285857677459717, -2.521638035774231, -1.893496572971344, -2.0, -2.0, -1.9113677144050598, -2.0, -2.0, -0.7682595252990723, -1.060701608657837, -2.0, -2.0, -0.644952803850174, -2.0, -2.0, 0.6141824126243591, 0.2661316394805908, 0.03668021410703659, -2.0, -2.0, 0.10277976095676422, -2.0, -2.0, 1.701764464378357, 0.9064769446849823, -2.0, -2.0, 3.402033567428589, -2.0, -2.0], "value": [2.0803464770952338e-16, -0.12194357367266684, -0.24798244613932827, -0.3702591350010167, -0.4987721533566556, -0.3468931316636277, -0.22192347966060788, -0.25674922225123425, -0.19426774289746335, -0.08258966412611417, -0.12740079238618104, -0.14923068443875145, -0.11102837334675313, -0.05798747606176379, -0.07475073423723917, -0.04228518359359693, 0.07169083442759833, 0.028072224823712282, 0.0022989526325386616, -0.011303524968092999, 0.017704168228434757, 0.058084522046328926, 0.044835069000313955, 0.07242297123311235, 0.14344344722599084, 0.11874008356208045, 0.10032914899361989, 0.13826683234681136, 0.1959380950118004, 0.1823970813149452, 0.2611811610057398]}, {"children_left": [1, 2, 3, 4, -1, -1, 7, -1, -1, 10, 11, -1, -1, 14, -1, -1, 17, 18, 19, -1, -1, 22, -1, -1, 25, 26, -1, -1, 29, -1, -1], "children_right": [16, 9, 6, 5, -1, -1, 8, -1, -1, 13, 12, -1, -1, 15, -1, -1, 24, 21, 20, -1, -1, 23, -1, -1, 28, 27, -1, -1, 30, -1, -1], "feature": [2, 3, 3, 2, -2, -2, 0, -2, -2, 3, 0, -2, -2, 0, -2, -2, 0, 0, 3, -2, -2, 3, -2, -2, 0, 0, -2, -2, 2, -2, -2], "threshold": [-0.4407850652933121, -1.3107053637504578, -2.3407301902770996, -1.066427230834961, -2.0, -2.0, -1.3393067717552185, -2.0, -2.0, -0.6243213415145874, -0.9706696569919586, -2.0, -2.0, -0.5161099135875702, -2.0, -2.0, 0.8378928601741791, 0.1620369553565979, 0.10998798534274101, -2.0, -2.0, 0.5814704596996307, -2.0, -2.0, 1.9565696716308594, 1.2904935479164124, -2.0, -2.0, 4.93082857131958, -2.0, -2.0], "value": [1.7710700630925117e-16, -0.10435535829922804, -0.22121449196109277, -0.32338454331874494, -0.42650533881547154, -0.2976043444445632, -0.19159998432119374, -0.22222260198344587, -0.16352925146412925, -0.06495966551170551, -0.10321746052377152, -0.12459453401145776, -0.0869129129484176, -0.04009209875386253, -0.053716775593927166, -0.023854470191045786, 0.07564156361319845, 0.04052655985413776, 0.013953855412025958, 0.0010101165306768624, 0.026897594293375054, 0.0680834385348463, 0.05261210353534466, 0.08109342478442721, 0.14945017024052357, 0.13053922398707246, 0.11563874320900955, 0.14792311822814586, 0.20476468803186781, 0.19772972391385513, 0.33842900627410977]}, {"children_left": [1, 2, 3, 4, -1, -1, 7, -1, -1, 10, 11, -1, -1, 14, -1, -1, 17, 18, 19, -1, -1, 22, -1, -1, 25, 26, -1, -1, 29, -1, -1], "children_right": [16, 9, 6, 5, -1, -1, 8, -1, -1, 13, 12, -1, -1, 15, -1, -1, 24, 21, 20, -1, -1, 23, -1, -1, 28, 27, -1, -1, 30, -1, -1], "feature": [2, 2, 0, 5, -2, -2, 3, -2, -2, 3, 2, -2, -2, 2, -2, -2, 3, 3, 0, -2, -2, 0, -2, -2, 3, 0, -2, -2, 0, -2, -2], "threshold": [-0.542199432849884, -0.936823695898056, -1.6863270998001099, -1.655776858329773, -2.0, -2.0, -2.087517261505127, -2.0, -2.0, -0.8504259884357452, -0.8621200919151306, -2.0, -2.0, -0.680499941110611, -2.0, -2.0, 0.6559384763240814, 0.19108443707227707, -0.2596512585878372, -2.0, -2.0, 0.226948581635952, -2.0, -2.0, 1.2808527946472168, 0.9773672521114349, -2.0, -2.0, 2.4100807905197144, -2.0, -2.0], "value": [1.5305217410903944e-16, -0.11355732470557235, -0.2304104999607855, -0.34687920586453036, -0.4525082787480492, -0.32340607855708176, -0.2079340830319927, -0.24384837666734466, -0.1869840784113707, -0.07915898740100746, -0.12162796801245518, -0.13744548953898772, -0.1045616947864595, -0.05708629353058398, -0.07518396193335694, -0.04495488943641744, 0.06276088740659203, 0.020867611241504082, -0.002868872248813369, -0.01775392535193118, 0.00720485055834717, 0.04580594199715409, 0.03224062890322119, 0.057456152066061146, 0.12531121679593984, 0.10119627677332012, 0.08464456990234764, 0.11894738269291383, 0.17191170900181305, 0.1570458462768547, 0.2217560722560852]}, {"children_left": [1, 2, 3, 4, -1, -1, 7, -1, -1, 10, 11, -1, -1, 14, -1, -1, 17, 18, 19, -1, -1, 22, -1, -1, 25, 26, -1, -1, 29, -1, -1], "children_right": [16, 9, 6, 5, -1, -1, 8, -1, -1, 13, 12, -1, -1, 15, -1, -1, 24, 21, 20, -1, -1, 23, -1, -1, 28, 27, -1, -1, 30, -1, -1], "feature": [2, 0, 0, 2, -2, -2, 2, -2, -2, 2, 2, -2, -2, 0, -2, -2, 0, 0, 0, -2, -2, 2, -2, -2, 3, 2, -2, -2, 2, -2, -2], "threshold": [-0.49509765207767487, -1.2186615467071533, -1.639611840248108, -1.0697431564331055, -2.0, -2.0, -0.9742838442325592, -2.0, -2.0, -0.7342711985111237, -0.8303024172782898, -2.0, -2.0, -0.6003696918487549, -2.0, -2.0, 0.6856657564640045, 0.08167551457881927, -0.16977579146623611, -2.0, -2.0, 0.13927790522575378, -2.0, -2.0, 1.5122781991958618, 1.0903398990631104, -2.0, -2.0, 4.064449071884155, -2.0, -2.0], "value": [1.6151101620142158e-16, -0.10021584594758386, -0.2073424914794794, -0.3020047343808077, -0.40336042561737445, -0.2802856576872577, -0.1817987116489622, -0.2080244961265224, -0.15639248293632577, -0.0656588635179402, -0.10105635492417406, -0.12017371876911327, -0.08583326889950028, -0.04292007764771051, -0.05633044914504206, -0.02933090119708123, 0.0642007763101712, 0.02867483093475103, 0.005790395329558744, -0.006772319626075997, 0.017639319662714238, 0.053759693040442556, 0.042277947970699586, 0.06681427990056135, 0.1269952851629409, 0.11036231342202014, 0.09417030736496766, 0.12925298715524797, 0.18362659370940945, 0.17570881326219645, 0.2865577395231795]}, {"children_left": [1, 2, 3, 4, -1, -1, 7, -1, -1, 10, 11, -1, -1, 14, -1, -1, 17, 18, 19, -1, -1, 22, -1, -1, 25, 26, -1, -1, 29, -1, -1], "children_right": [16, 9, 6, 5, -1, -1, 8, -1, -1, 13, 12, -1, -1, 15, -1, -1, 24, 21, 20, -1, -1, 23, -1, -1, 28, 27, -1, -1, 30, -1, -1], "feature": [3, 0, 0, 4, -2, -2, 3, -2, -2, 0, 2, -2, -2, 3, -2, -2, 0, 0, 3, -2, -2, 2, -2, -2, 3, 0, -2, -2, 0, -2, -2], "threshold": [-0.2776547968387604, -1.2847174406051636, -1.6863270998001099, -1.893496572971344, -2.0, -2.0, -2.098518967628479, -2.0, -2.0, -0.911765068769455, -0.8621200919151306, -2.0, -2.0, -0.5510364770889282, -2.0, -2.0, 0.5281832218170166, -0.035138705745339394, -0.045931316912174225, -2.0, -2.0, 0.005873045767657459, -2.0, -2.0, 1.1981329321861267, 0.8671663701534271, -2.0, -2.0, 2.265823483467102, -2.0, -2.0], "value": [1.7367060170922092e-16, -0.10333738813544277, -0.21014333104071545, -0.313842670396985, -0.40971484352977794, -0.29253774303414204, -0.18940346316946152, -0.2215041060590342, -0.17106023866113435, -0.07268872625827766, -0.11088827396756804, -0.12476600949278945, -0.09476009484366206, -0.05231563414665615, -0.06708006403914953, -0.040397359414161525, 0.05622769648546181, 0.018460454988398618, -0.0030717778273645106, -0.016831992386289525, 0.006056285295882777, 0.041211493435242684, 0.02895978292163287, 0.05187768847062066, 0.11313962261237268, 0.08778075853986439, 0.07426136876827284, 0.10172933528833188, 0.14961079790766557, 0.1343712741834629, 0.19088450799404796]}, {"children_left": [1, 2, 3, 4, -1, -1, 7, -1, -1, 10, 11, -1, -1, 14, -1, -1, 17, 18, 19, -1, -1, 22, -1, -1, 25, 26, -1, -1, 29, -1, -1], "children_right": [16, 9, 6, 5, -1, -1, 8, -1, -1, 13, 12, -1, -1, 15, -1, -1, 24, 21, 20, -1, -1, 23, -1, -1, 28, 27, -1, -1, 30, -1, -1], "feature": [0, 3, 3, 4, -2, -2, 2, -2, -2, 3, 3, -2, -2, 3, -2, -2, 2, 0, 2, -2, -2, 0, -2, -2, 0, 2, -2, -2, 1, -2, -2], "threshold": [-0.47855837643146515, -1.525189757347107, -2.601459503173828, -1.893496572971344, -2.0, -2.0, -1.0103557705879211, -2.0, -2.0, -0.8439693450927734, -1.1207416653633118, -2.0, -2.0, -0.5089075565338135, -2.0, -2.0, 0.294191375374794, -0.07918612658977509, -0.40051382780075073, -2.0, -2.0, 0.20427916198968887, -2.0, -2.0, 1.5649717450141907, 0.824707418680191, -2.0, -2.0, 2.8137866258621216, -2.0, -2.0], "value": [1.892665918170505e-16, -0.0984278305473866, -0.19963616448867966, -0.29815053687713583, -0.38922910135328914, -0.2779108558824351, -0.17993329001098843, -0.2092673298628746, -0.1618152065730587, -0.06925861639836756, -0.10466858273060199, -0.11852770901814981, -0.08938800759304912, -0.04950611817222323, -0.06111876358375893, -0.03637877988092194, 0.05327744956234712, 0.017002158179597732, -0.004768437123636502, -0.016082644817570883, 0.003974359730767338, 0.037098092305660114, 0.02579247481050849, 0.048538300485277845, 0.10686594819595414, 0.08720311425849198, 0.07276664571418269, 0.10390817071690696, 0.1498962079721396, 0.14221039757637727, 0.23059721712764372]}, {"children_left": [1, 2, 3, 4, -1, -1, 7, -1, -1, 10, 11, -1, -1, 14, -1, -1, 17, 18, 19, -1, -1, 22, -1, -1, 25, 26, -1, -1, 29, -1, -1], "children_right": [16, 9, 6, 5, -1, -1, 8, -1, -1, 13, 12, -1, -1, 15, -1, -1, 24, 21, 20, -1, -1, 23, -1, -1, 28, 27, -1, -1, 30, -1, -1], "feature": [3, 0, 3, 4, -2, -2, 2, -2, -2, 0, 2, -2, -2, 3, -2, -2, 3, 2, 2, -2, -2, 0, -2, -2, 3, 2, -2, -2, 3, -2, -2], "threshold": [-0.13461335748434067, -1.2076983451843262, -2.274529218673706, -1.7702592611312866, -2.0, -2.0, -0.9631941020488739, -2.0, -2.0, -0.7922346591949463, -0.8260846734046936, -2.0, -2.0, -0.4094172269105911, -2.0, -2.0, 0.8546924293041229, -0.07984619215130806, -0.2979260981082916, -2.0, -2.0, 0.40890809893608093, -2.0, -2.0, 1.5248746275901794, 1.1069450378417969, -2.0, -2.0, 2.151234745979309, -2.0, -2.0], "value": [2.0512692074026703e-16, -0.08241303064210113, -0.17499483310562983, -0.2466243284629834, -0.3225140157911523, -0.22430383218999253, -0.14957791539818185, -0.1712792757282259, -0.12923289008876557, -0.05261658846993092, -0.08422829392238822, -0.1007077674365183, -0.07186868878679067, -0.033610777829803325, -0.04654991949991032, -0.02202573238098655, 0.05743938499297994, 0.028866768657418867, 0.008671503298685141, -0.0020043369702162613, 0.018611078721455412, 0.05020516224400549, 0.0392717943162065, 0.06100186307270701, 0.11305394178898265, 0.09841124762027718, 0.08468836385197265, 0.11171188881109548, 0.15991056312884017, 0.15385228860323405, 0.27501777911535674]}, {"children_left": [1, 2, 3, 4, -1, -1, 7, -1, -1, 10, 11, -1, -1, 14, -1, -1, 17, 18, 19, -1, -1, 22, -1, -1, 25, 26, -1, -1, 29, -1, -1], "children_right": [16, 9, 6, 5, -1, -1, 8, -1, -1, 13, 12, -1, -1, 15, -1, -1, 24, 21, 20, -1, -1, 23, -1, -1, 28, 27, -1, -1, 30, -1, -1], "feature": [3, 0, 0, 0, -2, -2, 2, -2, -2, 0, 3, -2, -2, 0, -2, -2, 3, 3, 0, -2, -2, 3, -2, -2, 0, 3, -2, -2, 7, -2, -2], "threshold": [-0.2837403416633606, -1.2617666125297546, -1.6863270998001099, -1.9045237302780151, -2.0, -2.0, -0.9952977001667023, -2.0, -2.0, -0.8878198266029358, -1.0904458165168762, -2.0, -2.0, -0.657090425491333, -2.0, -2.0, 0.7065934836864471, 0.2601570039987564, -0.20785100758075714, -2.0, -2.0, 0.4973193109035492, -2.0, -2.0, 1.8942162990570068, 1.0421462655067444, -2.0, -2.0, 0.34768204391002655, -2.0, -2.0], "value": [1.2133151626260638e-16, -0.08934167538195639, -0.1777022776640865, -0.2697957687964802, -0.3536419454960671, -0.25116328508546093, -0.16023627072518437, -0.182996691588145, -0.1389932112530877, -0.062123454143264555, -0.09177822207960208, -0.10528661381358655, -0.07858397899059394, -0.04398924353471284, -0.053722679407470046, -0.032908101156497005, 0.04785577858667884, 0.017207711330392464, -0.0005911473251220122, -0.010935304383273437, 0.011247165752540174, 0.03995724590333479, 0.030711140446876877, 0.05010227827917059, 0.09979141965151886, 0.08635210562214023, 0.07005239545192952, 0.10109946244280708, 0.1497981695282766, 0.1443606709608955, 0.2612668901595887]}, {"children_left": [1, 2, 3, 4, -1, -1, 7, -1, -1, 10, 11, -1, -1, 14, -1, -1, 17, 18, 19, -1, -1, 22, -1, -1, 25, 26, -1, -1, 29, -1, -1], "children_right": [16, 9, 6, 5, -1, -1, 8, -1, -1, 13, 12, -1, -1, 15, -1, -1, 24, 21, 20, -1, -1, 23, -1, -1, 28, 27, -1, -1, 30, -1, -1], "feature": [2, 2, 0, 1, -2, -2, 1, -2, -2, 2, 0, -2, -2, 0, -2, -2, 0, 3, 0, -2, -2, 3, -2, -2, 3, 3, -2, -2, 2, -2, -2], "threshold": [-0.5171847343444824, -0.9254312515258789, -1.6467408537864685, -1.8713243007659912, -2.0, -2.0, -1.3709786534309387, -2.0, -2.0, -0.7392708361148834, -1.022812008857727, -2.0, -2.0, -0.6130804717540741, -2.0, -2.0, 0.7124943733215332, 0.28093594312667847, -0.17238865792751312, -2.0, -2.0, 0.5217304825782776, -2.0, -2.0, 1.5167219042778015, 1.0884795188903809, -2.0, -2.0, 4.064449071884155, -2.0, -2.0], "value": [8.961085841617335e-17, -0.07981406806065561, -0.1627799576446486, -0.23776852675126028, -0.3359598482212638, -0.2237411951126884, -0.14311082476422585, -0.16577689814133578, -0.12511129590593267, -0.053195845152457684, -0.07994243854732928, -0.09545001857690867, -0.06858867459710152, -0.035053051031460905, -0.045167719996203004, -0.025078863580118002, 0.0483767869507225, 0.02131785448651594, 0.0026505692768465094, -0.006576333564664154, 0.012989147159503035, 0.04122962537682999, 0.03138676332552085, 0.05143703787448393, 0.09907511645783484, 0.08609977997317998, 0.0722213696167887, 0.09902761427776365, 0.1436976151001844, 0.137017737766854, 0.2283093946557022]}, {"children_left": [1, 2, 3, 4, -1, -1, 7, -1, -1, 10, 11, -1, -1, 14, -1, -1, 17, 18, 19, -1, -1, 22, -1, -1, 25, 26, -1, -1, 29, -1, -1], "children_right": [16, 9, 6, 5, -1, -1, 8, -1, -1, 13, 12, -1, -1, 15, -1, -1, 24, 21, 20, -1, -1, 23, -1, -1, 28, 27, -1, -1, 30, -1, -1], "feature": [3, 2, 0, 0, -2, -2, 0, -2, -2, 3, 3, -2, -2, 3, -2, -2, 0, 3, 2, -2, -2, 0, -2, -2, 3, 3, -2, -2, 8, -2, -2], "threshold": [-0.053128283470869064, -0.8990176022052765, -1.5525848865509033, -1.7401021718978882, -2.0, -2.0, -1.3183181881904602, -2.0, -2.0, -0.6243213415145874, -0.9133673310279846, -2.0, -2.0, -0.37675169110298157, -2.0, -2.0, 0.8500201106071472, 0.3502848744392395, -0.2813609093427658, -2.0, -2.0, 0.4678294360637665, -2.0, -2.0, 1.5479466915130615, 1.1841436624526978, -2.0, -2.0, 1.8984084725379944, -2.0, -2.0], "value": [7.375052949295682e-17, -0.0678614632270984, -0.14660335210278166, -0.20513510707966306, -0.26499887478345724, -0.18308003476773888, -0.12282482664342359, -0.14108468202575655, -0.1056716291630503, -0.04180716176087946, -0.06842056179482063, -0.08181430543164929, -0.05761157570194139, -0.02558716055676159, -0.03699550102974806, -0.016264215654105983, 0.051392990979518056, 0.028070523692691515, 0.009973164722275326, 0.001779695872514259, 0.01775696012954834, 0.044975841054277904, 0.0356824909008853, 0.05508235934609233, 0.09999400345464703, 0.08782231844195854, 0.07739289576026781, 0.09955541895886053, 0.14022818446881188, 0.13454819085410527, 0.23678807591882434]}, {"children_left": [1, 2, 3, 4, -1, -1, 7, -1, -1, 10, 11, -1, -1, 14, -1, -1, 17, 18, 19, -1, -1, 22, -1, -1, 25, 26, -1, -1, 29, -1, -1], "children_right": [16, 9, 6, 5, -1, -1, 8, -1, -1, 13, 12, -1, -1, 15, -1, -1, 24, 21, 20, -1, -1, 23, -1, -1, 28, 27, -1, -1, 30, -1, -1], "feature": [0, 3, 2, 2, -2, -2, 0, -2, -2, 0, 3, -2, -2, 3, -2, -2, 0, 2, 3, -2, -2, 2, -2, -2, 0, 0, -2, -2, 0, -2, -2], "threshold": [-0.463883712887764, -1.525189757347107, -1.0457969307899475, -1.0759509205818176, -2.0, -2.0, -1.5271795988082886, -2.0, -2.0, -0.8556219637393951, -1.0664238929748535, -2.0, -2.0, -0.48175248503685, -2.0, -2.0, 0.6141824126243591, -0.14675743132829666, 0.024162516929209232, -2.0, -2.0, 0.10062046349048615, -2.0, -2.0, 1.6876749396324158, 1.0777388215065002, -2.0, -2.0, 2.7260626554489136, -2.0, -2.0], "value": [5.921189464667501e-17, -0.07450546377856186, -0.1547802149329217, -0.23233824074296575, -0.30591191207102764, -0.2159885360033964, -0.13926860977091285, -0.16413883551966338, -0.12614265729240562, -0.052244398332394776, -0.07790817599891596, -0.09056782543288179, -0.06551226926149109, -0.035195035546943754, -0.04425795317617928, -0.026004471190535894, 0.04225683020276645, 0.016128080441957883, 0.0007205139062612133, -0.007919101487569892, 0.01035318854076256, 0.03477934519569596, 0.0266102824490234, 0.04338997890164813, 0.08615312980092497, 0.07227313205694619, 0.060280210446795005, 0.08426605366709744, 0.1218445525711562, 0.11387382584637501, 0.17763963964462448]}, {"children_left": [1, 2, 3, 4, -1, -1, 7, -1, -1, 10, 11, -1, -1, 14, -1, -1, 17, 18, 19, -1, -1, 22, -1, -1, 25, 26, -1, -1, 29, -1, -1], "children_right": [16, 9, 6, 5, -1, -1, 8, -1, -1, 13, 12, -1, -1, 15, -1, -1, 24, 21, 20, -1, -1, 23, -1, -1, 28, 27, -1, -1, 30, -1, -1], "feature": [2, 3, 2, 2, -2, -2, 2, -2, -2, 2, 0, -2, -2, 3, -2, -2, 0, 2, 3, -2, -2, 3, -2, -2, 0, 2, -2, -2, 7, -2, -2], "threshold": [-0.40550756454467773, -1.2017573118209839, -1.0147667527198792, -1.0550318360328674, -2.0, -2.0, -0.9496004581451416, -2.0, -2.0, -0.6990393996238708, -0.9280092418193817, -2.0, -2.0, -0.30141083896160126, -2.0, -2.0, 0.856795459985733, -0.0353967621922493, 0.12938208132982254, -2.0, -2.0, 0.6162517666816711, -2.0, -2.0, 2.0262950658798218, 1.2476361989974976, -2.0, -2.0, 0.34768204391002655, -2.0, -2.0], "value": [6.053358872360972e-17, -0.06127654353605249, -0.12751474765626225, -0.18104410670588267, -0.2396648845860055, -0.16239204101675275, -0.10565064325571302, -0.12457657033696684, -0.09180240392796643, -0.035994786238262425, -0.0583551869658458, -0.07026541832798296, -0.05028045383897312, -0.022413929354638165, -0.03089470785523214, -0.012941891029299445, 0.0464060852720732, 0.025436177417028912, 0.010362479381281377, 0.002085603754666941, 0.017895366187525977, 0.04207597394999699, 0.03363233592145935, 0.04988633912639428, 0.09052459270736145, 0.07981471791466657, 0.07002385037562803, 0.09028081769777684, 0.1283241507992256, 0.12284024209038646, 0.21606669014065183]}, {"children_left": [1, 2, 3, 4, -1, -1, 7, -1, -1, 10, 11, -1, -1, 14, -1, -1, 17, 18, 19, -1, -1, 22, -1, -1, 25, 26, -1, -1, 29, -1, -1], "children_right": [16, 9, 6, 5, -1, -1, 8, -1, -1, 13, 12, -1, -1, 15, -1, -1, 24, 21, 20, -1, -1, 23, -1, -1, 28, 27, -1, -1, 30, -1, -1], "feature": [2, 0, 0, 4, -2, -2, 3, -2, -2, 2, 2, -2, -2, 2, -2, -2, 3, 0, 0, -2, -2, 0, -2, -2, 3, 0, -2, -2, 2, -2, -2], "threshold": [-0.46965382993221283, -1.2158321142196655, -1.6267067193984985, -1.8487110137939453, -2.0, -2.0, -1.751097559928894, -2.0, -2.0, -0.731292724609375, -0.8260846734046936, -2.0, -2.0, -0.6147859692573547, -2.0, -2.0, 0.8222678005695343, 0.11334620416164398, -0.15031078457832336, -2.0, -2.0, 0.40890809893608093, -2.0, -2.0, 1.5479466915130615, 1.2588879466056824, -2.0, -2.0, 3.7576284408569336, -2.0, -2.0], "value": [8.326672684688674e-17, -0.061903986627235445, -0.12999294288430102, -0.1901339095004516, -0.26099590030412534, -0.17596151133971683, -0.11307829602350865, -0.13074183327303762, -0.0974928219798066, -0.04000871441908096, -0.06303306955116339, -0.07450888680851452, -0.05350597597902281, -0.02587350905318226, -0.03467985036809966, -0.017067167738264864, 0.04147444034468865, 0.02002224972475683, 0.005069301605547516, -0.0028797799191706934, 0.012386069827163141, 0.03571820147721881, 0.02821617238896103, 0.044320528165087705, 0.08239480395496324, 0.07235742507194595, 0.06279411261961966, 0.08463034271909811, 0.1205926069264456, 0.11228040197368577, 0.1721282776335566]}, {"children_left": [1, 2, 3, 4, -1, -1, 7, -1, -1, 10, 11, -1, -1, 14, -1, -1, 17, 18, 19, -1, -1, 22, -1, -1, 25, 26, -1, -1, 29, -1, -1], "children_right": [16, 9, 6, 5, -1, -1, 8, -1, -1, 13, 12, -1, -1, 15, -1, -1, 24, 21, 20, -1, -1, 23, -1, -1, 28, 27, -1, -1, 30, -1, -1], "feature": [3, 2, 3, 2, -2, -2, 0, -2, -2, 2, 3, -2, -2, 2, -2, -2, 3, 2, 2, -2, -2, 3, -2, -2, 2, 0, -2, -2, 2, -2, -2], "threshold": [-0.053128283470869064, -0.8833106458187103, -2.218156099319458, -1.0565927624702454, -2.0, -2.0, -1.3183181881904602, -2.0, -2.0, -0.6999640464782715, -0.8833469748497009, -2.0, -2.0, -0.556515246629715, -2.0, -2.0, 0.8896268904209137, -0.03309447690844536, -0.2591283768415451, -2.0, -2.0, 0.6329956650733948, -2.0, -2.0, 2.2816147804260254, 1.3259732723236084, -2.0, -2.0, 4.93082857131958, -2.0, -2.0], "value": [2.960594732333751e-17, -0.05532132989635505, -0.11598126356401953, -0.17031925787971755, -0.22266210506306575, -0.15287164215193474, -0.09835813027244181, -0.11612370110211441, -0.08405901228758332, -0.03280362724699478, -0.05343387184301997, -0.06389234034630199, -0.045727631893233214, -0.020425480489379675, -0.027993451263296432, -0.01156298839887189, 0.04189606992150749, 0.02294948813770176, 0.009520841033965487, 0.002470968243612996, 0.016906422052430002, 0.03814506249192966, 0.031052247782096535, 0.04542701892735835, 0.08175770951860512, 0.07209713206100368, 0.0633125127739317, 0.08148758716097707, 0.11585386525131619, 0.11080367297002709, 0.1966569417519417]}, {"children_left": [1, 2, 3, 4, -1, -1, 7, -1, -1, 10, 11, -1, -1, 14, -1, -1, 17, 18, 19, -1, -1, 22, -1, -1, 25, 26, -1, -1, 29, -1, -1], "children_right": [16, 9, 6, 5, -1, -1, 8, -1, -1, 13, 12, -1, -1, 15, -1, -1, 24, 21, 20, -1, -1, 23, -1, -1, 28, 27, -1, -1, 30, -1, -1], "feature": [0, 2, 0, 3, -2, -2, 3, -2, -2, 0, 3, -2, -2, 3, -2, -2, 3, 3, 3, -2, -2, 3, -2, -2, 2, 3, -2, -2, 0, -2, -2], "threshold": [-0.3903011381626129, -0.9189933240413666, -1.6632344126701355, -3.5525556802749634, -2.0, -2.0, -1.9113677144050598, -2.0, -2.0, -0.800605446100235, -1.0051259398460388, -2.0, -2.0, -0.4340411126613617, -2.0, -2.0, 0.7988262176513672, 0.3136230409145355, 0.0725574716925621, -2.0, -2.0, 0.5299568772315979, -2.0, -2.0, 2.072326898574829, 1.0964030027389526, -2.0, -2.0, 2.8591108322143555, -2.0, -2.0], "value": [8.405974329304756e-17, -0.05672667980375708, -0.11839524003255446, -0.1840299900700299, -0.25445017196981645, -0.17122632063370508, -0.10566013927901445, -0.12598683907093214, -0.09193961691947006, -0.03707136180254677, -0.05764516739212278, -0.0687611865001584, -0.049506653402310995, -0.02411253620391766, -0.03255861570429639, -0.016696466398707064, 0.03688905896865158, 0.017063160199925216, 0.003923588539232508, -0.003094620786253857, 0.011023404949898946, 0.03154179648845923, 0.024343011318855558, 0.03847062721420271, 0.0734395985981471, 0.06341473093523234, 0.05353538179426039, 0.07272954583957733, 0.10514615678783122, 0.09842004390100119, 0.15626461472773928]}, {"children_left": [1, 2, 3, 4, -1, -1, 7, -1, -1, 10, 11, -1, -1, 14, -1, -1, 17, 18, 19, -1, -1, 22, -1, -1, 25, 26, -1, -1, 29, -1, -1], "children_right": [16, 9, 6, 5, -1, -1, 8, -1, -1, 13, 12, -1, -1, 15, -1, -1, 24, 21, 20, -1, -1, 23, -1, -1, 28, 27, -1, -1, 30, -1, -1], "feature": [3, 0, 3, 5, -2, -2, 3, -2, -2, 2, 3, -2, -2, 0, -2, -2, 0, 3, 3, -2, -2, 3, -2, -2, 2, 0, -2, -2, 2, -2, -2], "threshold": [-0.2837403416633606, -1.2847174406051636, -2.702241897583008, -1.655776858329773, -2.0, -2.0, -1.9688353538513184, -2.0, -2.0, -0.7797338962554932, -1.1207416653633118, -2.0, -2.0, -0.7094732820987701, -2.0, -2.0, 0.560259073972702, 0.20687607675790787, -0.004404418868944049, -2.0, -2.0, 0.48680466413497925, -2.0, -2.0, 1.740668535232544, 1.0325360298156738, -2.0, -2.0, 3.402033567428589, -2.0, -2.0], "value": [1.0335647681629434e-16, -0.05940074445078616, -0.1200787275205831, -0.1893144604035294, -0.24172766337132567, -0.17433925955558757, -0.10914676969695997, -0.1243626110574114, -0.09445561252135172, -0.041758687699215244, -0.061723201248514645, -0.07087203122262993, -0.05278229922835653, -0.02935216856500773, -0.03872376653244916, -0.023981927033103097, 0.03181794903853825, 0.010614994172062072, -0.0016261935118152447, -0.008181186569900812, 0.005391504938605774, 0.0242507475414444, 0.018389828343696686, 0.03181048389795957, 0.06506577497939767, 0.054094814286085126, 0.04487065811473662, 0.06432983688717037, 0.09370184187380662, 0.08551271878569416, 0.1294361971673883]}, {"children_left": [1, 2, 3, 4, -1, -1, 7, -1, -1, 10, 11, -1, -1, 14, -1, -1, 17, 18, 19, -1, -1, 22, -1, -1, 25, 26, -1, -1, 29, -1, -1], "children_right": [16, 9, 6, 5, -1, -1, 8, -1, -1, 13, 12, -1, -1, 15, -1, -1, 24, 21, 20, -1, -1, 23, -1, -1, 28, 27, -1, -1, 30, -1, -1], "feature": [0, 0, 2, 0, -2, -2, 3, -2, -2, 3, 2, -2, -2, 3, -2, -2, 0, 2, 0, -2, -2, 3, -2, -2, 2, 2, -2, -2, 7, -2, -2], "threshold": [-0.2667606920003891, -1.1649454236030579, -1.0302566885948181, -1.8184816241264343, -2.0, -2.0, -1.643040657043457, -2.0, -2.0, -0.636430025100708, -0.8212836980819702, -2.0, -2.0, -0.37675169110298157, -2.0, -2.0, 0.856795459985733, -0.07450486719608307, -0.1146077886223793, -2.0, -2.0, 0.5794398188591003, -2.0, -2.0, 2.4296075105667114, 1.261503517627716, -2.0, -2.0, 0.34768204391002655, -2.0, -2.0], "value": [9.225424657004277e-17, -0.047352345889489604, -0.10263034411010362, -0.15221650657657868, -0.20523520006299256, -0.13896183320497515, -0.08846286911968215, -0.1033216958053915, -0.07521040207567106, -0.029128829992583902, -0.04793329357982673, -0.058089160007064905, -0.04110721942381415, -0.017912132414228513, -0.026051974479572387, -0.011244389445808531, 0.0360354330353979, 0.01974828451274167, 0.006716234386166229, 0.0011138535965359482, 0.01182220168810775, 0.03118921224014223, 0.023798290549939434, 0.03761610066640551, 0.07019614065109896, 0.06212770350220146, 0.05439992339701497, 0.07037940090265485, 0.10095705728127057, 0.0961849241620494, 0.17253905406958792]}, {"children_left": [1, 2, 3, 4, -1, -1, 7, -1, -1, 10, 11, -1, -1, 14, -1, -1, 17, 18, 19, -1, -1, 22, -1, -1, 25, 26, -1, -1, 29, -1, -1], "children_right": [16, 9, 6, 5, -1, -1, 8, -1, -1, 13, 12, -1, -1, 15, -1, -1, 24, 21, 20, -1, -1, 23, -1, -1, 28, 27, -1, -1, 30, -1, -1], "feature": [0, 3, 2, 3, -2, -2, 0, -2, -2, 0, 2, -2, -2, 3, -2, -2, 3, 3, 0, -2, -2, 3, -2, -2, 0, 2, -2, -2, 2, -2, -2], "threshold": [-0.42623983323574066, -1.4572357535362244, -1.0490437150001526, -3.5525556802749634, -2.0, -2.0, -1.4752973914146423, -2.0, -2.0, -0.8443260192871094, -0.8440852761268616, -2.0, -2.0, -0.44556863605976105, -2.0, -2.0, 0.7610178291797638, 0.27928245067596436, -0.1969820111989975, -2.0, -2.0, 0.510635256767273, -2.0, -2.0, 1.8942162990570068, 1.0384425520896912, -2.0, -2.0, 3.7576284408569336, -2.0, -2.0], "value": [2.4583509830985608e-17, -0.05017127359391252, -0.10587746032379448, -0.16766791534080613, -0.21937952019960982, -0.1547400141261052, -0.0957478775341205, -0.11148018478363328, -0.08325457471833086, -0.03422313142527698, -0.052985778271144215, -0.06157005917192577, -0.04493801492666153, -0.022965543317756635, -0.02984713148186091, -0.01562518260937874, 0.030719071547904257, 0.013284420042198692, 0.0017465441755733229, -0.004551529952967947, 0.007554768094116938, 0.025605731924459117, 0.019207980447817956, 0.03154650115276876, 0.06212019119527719, 0.0536180788684218, 0.0451015077491332, 0.062254601693615914, 0.0903946577706335, 0.08444089625009456, 0.13564324532672947]}, {"children_left": [1, 2, 3, 4, -1, -1, 7, -1, -1, 10, 11, -1, -1, 14, -1, -1, 17, 18, 19, -1, -1, 22, -1, -1, 25, 26, -1, -1, 29, -1, -1], "children_right": [16, 9, 6, 5, -1, -1, 8, -1, -1, 13, 12, -1, -1, 15, -1, -1, 24, 21, 20, -1, -1, 23, -1, -1, 28, 27, -1, -1, 30, -1, -1], "feature": [2, 3, 0, 3, -2, -2, 2, -2, -2, 2, 0, -2, -2, 3, -2, -2, 0, 3, 2, -2, -2, 2, -2, -2, 2, 2, -2, -2, 3, -2, -2], "threshold": [-0.5435412526130676, -1.5438081622123718, -1.714700996875763, -3.5525556802749634, -2.0, -2.0, -1.0121386647224426, -2.0, -2.0, -0.7941131293773651, -1.1087749600410461, -2.0, -2.0, -0.5685742199420929, -2.0, -2.0, 0.5330201387405396, 0.19497955590486526, -0.37628938257694244, -2.0, -2.0, 0.0764666460454464, -2.0, -2.0, 1.632285714149475, 0.7856093645095825, -2.0, -2.0, 1.8065699934959412, -2.0, -2.0], "value": [9.066821367772112e-17, -0.05044186896865626, -0.10413622583833236, -0.16297268679691507, -0.20841054418962934, -0.14999044182756813, -0.09450844131783702, -0.11069932103332332, -0.08450819208180135, -0.03569320442076236, -0.05502410005854399, -0.062060128184160276, -0.04780766095534784, -0.025776706009173114, -0.03427921774483379, -0.020199789709438688, 0.027589751535342516, 0.00914110904050157, -0.001332322309708212, -0.007024476582121231, 0.00416126844157412, 0.020343703332814565, 0.015439113273605922, 0.026835072528826005, 0.05551894642336563, 0.04533273884922752, 0.03672711631523479, 0.05286265856647114, 0.07866941818277032, 0.0716191138011055, 0.11039578790026217]}, {"children_left": [1, 2, 3, 4, -1, -1, 7, -1, -1, 10, 11, -1, -1, 14, -1, -1, 17, 18, 19, -1, -1, 22, -1, -1, 25, 26, -1, -1, 29, -1, -1], "children_right": [16, 9, 6, 5, -1, -1, 8, -1, -1, 13, 12, -1, -1, 15, -1, -1, 24, 21, 20, -1, -1, 23, -1, -1, 28, 27, -1, -1, 30, -1, -1], "feature": [0, 2, 0, 5, -2, -2, 2, -2, -2, 3, 0, -2, -2, 3, -2, -2, 3, 2, 3, -2, -2, 3, -2, -2, 0, 3, -2, -2, 7, -2, -2], "threshold": [-0.3484841585159302, -0.9133917093276978, -1.6267067193984985, -1.5898315906524658, -2.0, -2.0, -0.9703032970428467, -2.0, -2.0, -0.6742866337299347, -0.9844124913215637, -2.0, -2.0, -0.4094172269105911, -2.0, -2.0, 0.8669970631599426, -0.07450486719608307, 0.09445629268884659, -2.0, -2.0, 0.5643050074577332, -2.0, -2.0, 2.1170990467071533, 1.1841436624526978, -2.0, -2.0, 0.34768204391002655, -2.0, -2.0], "value": [9.251858538542972e-17, -0.04235627147012026, -0.08987566201272801, -0.13392214398963445, -0.17666042705127005, -0.1217112059720243, -0.07804227879505166, -0.09066240547831188, -0.06650387725607095, -0.02688060788344725, -0.042781062417283265, -0.051300547488887745, -0.036611780124052425, -0.017004549166778942, -0.023776407861054696, -0.011244577403831748, 0.02966653831712892, 0.015211757868388442, 0.004622135151328709, -0.0008315212356336193, 0.00969967730470743, 0.02612621563811872, 0.020273290347155467, 0.031497135316885014, 0.0590194973878842, 0.052189665196069296, 0.04538058884237507, 0.06024707221460743, 0.08697912292312637, 0.08267038780435086, 0.15161014970475906]}, {"children_left": [1, 2, 3, 4, -1, -1, 7, -1, -1, 10, 11, -1, -1, 14, -1, -1, 17, 18, 19, -1, -1, 22, -1, -1, 25, 26, -1, -1, 29, -1, -1], "children_right": [16, 9, 6, 5, -1, -1, 8, -1, -1, 13, 12, -1, -1, 15, -1, -1, 24, 21, 20, -1, -1, 23, -1, -1, 28, 27, -1, -1, 30, -1, -1], "feature": [2, 0, 2, 2, -2, -2, 0, -2, -2, 3, 2, -2, -2, 3, -2, -2, 3, 0, 2, -2, -2, 0, -2, -2, 0, 3, -2, -2, 0, -2, -2], "threshold": [-0.5503739714622498, -1.2935664653778076, -1.0508211255073547, -1.0759509205818176, -2.0, -2.0, -1.5271795988082886, -2.0, -2.0, -0.8700767755508423, -0.8769623041152954, -2.0, -2.0, -0.5407393276691437, -2.0, -2.0, 0.6449947953224182, -0.07704417034983635, -0.38713662326335907, -2.0, -2.0, 0.226948581635952, -2.0, -2.0, 1.4948284029960632, 0.9121908247470856, -2.0, -2.0, 2.5608227252960205, -2.0, -2.0], "value": [7.401486830834377e-17, -0.04614898324943087, -0.09405218810211544, -0.14751739835670696, -0.18915699562758426, -0.13562037056502776, -0.08530333551500047, -0.09996590326859059, -0.07624704366719479, -0.03270246960657211, -0.049492330352970564, -0.05599300699411937, -0.04299165371182175, -0.023626869203113424, -0.02959597846972354, -0.017657759936503307, 0.024590334140207806, 0.007391352926762208, -0.002301455504518568, -0.006971516805911032, 0.002486835196909148, 0.0169057661108415, 0.012144184628581146, 0.02222389607804137, 0.04928042717106526, 0.03943613917770421, 0.0322785229555982, 0.04649957623899302, 0.06936809591427505, 0.06340682781396796, 0.10016798109919504]}, {"children_left": [1, 2, 3, 4, -1, -1, 7, -1, -1, 10, 11, -1, -1, 14, -1, -1, 17, 18, 19, -1, -1, 22, -1, -1, 25, 26, -1, -1, 29, -1, -1], "children_right": [16, 9, 6, 5, -1, -1, 8, -1, -1, 13, 12, -1, -1, 15, -1, -1, 24, 21, 20, -1, -1, 23, -1, -1, 28, 27, -1, -1, 30, -1, -1], "feature": [0, 2, 2, 4, -2, -2, 2, -2, -2, 3, 3, -2, -2, 0, -2, -2, 2, 2, 2, -2, -2, 0, -2, -2, 0, 0, -2, -2, 2, -2, -2], "threshold": [-0.4591481536626816, -0.9307818412780762, -1.0425324440002441, -1.893496572971344, -2.0, -2.0, -0.9930215775966644, -2.0, -2.0, -0.729730874300003, -1.0483717322349548, -2.0, -2.0, -0.6174719333648682, -2.0, -2.0, 0.4209603816270828, -0.1508142426609993, -0.35838915407657623, -2.0, -2.0, 0.3248785734176636, -2.0, -2.0, 1.782530665397644, 1.1262738704681396, -2.0, -2.0, 4.93082857131958, -2.0, -2.0], "value": [1.0150610510858574e-16, -0.04217145998693698, -0.08634499052736995, -0.13203664222371, -0.17969914584620494, -0.12250414149921103, -0.07705177323319908, -0.08866113483086115, -0.06656589824176239, -0.028881965629433858, -0.04260567491742822, -0.05015076011262957, -0.03619947050640818, -0.01913614309158281, -0.023972705833262043, -0.013543867421516191, 0.02429012798497138, 0.00973732252927714, 0.00048180090347076625, -0.0047213654885656505, 0.005458742669766469, 0.020149784358309313, 0.015090019840703458, 0.024962731094568542, 0.04992719459085756, 0.042583934649680334, 0.035387409603506635, 0.04958595901893045, 0.072738172280472, 0.0697922580189569, 0.13902124316456144]}, {"children_left": [1, 2, 3, 4, -1, -1, 7, -1, -1, 10, 11, -1, -1, 14, -1, -1, 17, 18, 19, -1, -1, 22, -1, -1, 25, 26, -1, -1, 29, -1, -1], "children_right": [16, 9, 6, 5, -1, -1, 8, -1, -1, 13, 12, -1, -1, 15, -1, -1, 24, 21, 20, -1, -1, 23, -1, -1, 28, 27, -1, -1, 30, -1, -1], "feature": [0, 2, 3, 0, -2, -2, 0, -2, -2, 0, 3, -2, -2, 3, -2, -2, 2, 2, 3, -2, -2, 2, -2, -2, 2, 3, -2, -2, 0, -2, -2], "threshold": [-0.3163495361804962, -0.8990176022052765, -2.274529218673706, -1.7833877205848694, -2.0, -2.0, -1.3281960487365723, -2.0, -2.0, -0.7593561112880707, -0.9049080312252045, -2.0, -2.0, -0.37675169110298157, -2.0, -2.0, 0.6527355313301086, -0.07450486719608307, 0.09568704664707184, -2.0, -2.0, 0.21455661207437515, -2.0, -2.0, 2.7392579317092896, 1.2175344228744507, -2.0, -2.0, 3.905685305595398, -2.0, -2.0], "value": [1.2926168072421466e-16, -0.03563609196699519, -0.07559890268671537, -0.1104918958212902, -0.1470441971955963, -0.09974121894649426, -0.06430999314317645, -0.07462957412277746, -0.05458010250526696, -0.022012406494363302, -0.035295126114581715, -0.041717609742092356, -0.029586251779016703, -0.01364921265941095, -0.019153744460462214, -0.0086627544396351, 0.025957153408058427, 0.0139486528795742, 0.004422043107827562, -0.0001749668115430326, 0.008377609782634816, 0.022862439800506736, 0.017738594744650983, 0.027809600544091602, 0.05160111260114411, 0.04655045069120119, 0.0403348540255114, 0.053568059829883226, 0.0805875200842948, 0.07703218103454847, 0.15880497917871406]}, {"children_left": [1, 2, 3, 4, -1, -1, 7, -1, -1, 10, 11, -1, -1, 14, -1, -1, 17, 18, 19, -1, -1, 22, -1, -1, 25, 26, -1, -1, 29, -1, -1], "children_right": [16, 9, 6, 5, -1, -1, 8, -1, -1, 13, 12, -1, -1, 15, -1, -1, 24, 21, 20, -1, -1, 23, -1, -1, 28, 27, -1, -1, 30, -1, -1], "feature": [0, 2, 2, 1, -2, -2, 3, -2, -2, 0, 3, -2, -2, 3, -2, -2, 0, 0, 0, -2, -2, 0, -2, -2, 2, 3, -2, -2, 3, -2, -2], "threshold": [-0.48175230622291565, -0.94557785987854, -1.0508211255073547, -1.8713243007659912, -2.0, -2.0, -2.138411283493042, -2.0, -2.0, -0.8805209100246429, -1.1653662323951721, -2.0, -2.0, -0.49958913028240204, -2.0, -2.0, 0.5992729663848877, 0.0033539539435878396, -0.22514325380325317, -2.0, -2.0, 0.3119317442178726, -2.0, -2.0, 2.2289732694625854, 1.1165727376937866, -2.0, -2.0, 1.996296226978302, -2.0, -2.0], "value": [1.9534638457095016e-16, -0.039487675434794166, -0.08114298813140922, -0.1270797887502559, -0.16336197869411495, -0.11671344876629619, -0.07348685469493478, -0.0863082295978121, -0.0659448694579481, -0.028077741957025754, -0.041194720150930536, -0.04776489296169764, -0.03517206174106068, -0.019333089827755903, -0.023796460822584995, -0.014320380864332462, 0.02115153364240379, 0.0076275415954115905, -0.0007964807807523107, -0.005335414511555044, 0.0038433181440682617, 0.017033505230146743, 0.012563301898264247, 0.021671341186974835, 0.0442494408513756, 0.03863380522161122, 0.0324398634854054, 0.04703986900646197, 0.06929214028140591, 0.0652391895147238, 0.11522558230380338]}, {"children_left": [1, 2, 3, 4, -1, -1, 7, -1, -1, 10, 11, -1, -1, 14, -1, -1, 17, 18, 19, -1, -1, 22, -1, -1, 25, 26, -1, -1, 29, -1, -1], "children_right": [16, 9, 6, 5, -1, -1, 8, -1, -1, 13, 12, -1, -1, 15, -1, -1, 24, 21, 20, -1, -1, 23, -1, -1, 28, 27, -1, -1, 30, -1, -1], "feature": [2, 2, 2, 0, -2, -2, 1, -2, -2, 2, 3, -2, -2, 2, -2, -2, 2, 0, 0, -2, -2, 0, -2, -2, 0, 0, -2, -2, 1, -2, -2], "threshold": [-0.49509765207767487, -0.927230030298233, -1.0425324440002441, -1.9045237302780151, -2.0, -2.0, -1.392596423625946, -2.0, -2.0, -0.7392708361148834, -1.0172032117843628, -2.0, -2.0, -0.6288368403911591, -2.0, -2.0, 0.6177846491336823, 0.11334620416164398, -0.16555780917406082, -2.0, -2.0, 0.40890809893608093, -2.0, -2.0, 2.225252866744995, 1.3259732723236084, -2.0, -2.0, 3.83888578414917, -2.0, -2.0], "value": [1.7631398986309033e-16, -0.034313366229565635, -0.0724184846496084, -0.1136179255035696, -0.15519387975940924, -0.10530273465240167, -0.06469358948949065, -0.07544016784461677, -0.055211314470261744, -0.022821346388600346, -0.035420567264215976, -0.041789002981459863, -0.030231471494609845, -0.014803660376844907, -0.019941450269717585, -0.010292430227005486, 0.02198200024081576, 0.01076632009191809, 0.002312545215864812, -0.0022985930330320582, 0.006433136842538611, 0.019670295996873616, 0.01527861456715656, 0.024220712899953936, 0.04556891546304295, 0.04068543297375769, 0.0349594687153825, 0.04711613129470214, 0.07052893707494548, 0.06766068653534384, 0.1451034511045881]}, {"children_left": [1, 2, 3, 4, -1, -1, 7, -1, -1, 10, 11, -1, -1, 14, -1, -1, 17, 18, 19, -1, -1, 22, -1, -1, 25, 26, -1, -1, 29, -1, -1], "children_right": [16, 9, 6, 5, -1, -1, 8, -1, -1, 13, 12, -1, -1, 15, -1, -1, 24, 21, 20, -1, -1, 23, -1, -1, 28, 27, -1, -1, 30, -1, -1], "feature": [0, 3, 3, 3, -2, -2, 0, -2, -2, 0, 3, -2, -2, 0, -2, -2, 0, 3, 0, -2, -2, 2, -2, -2, 1, 0, -2, -2, 0, -2, -2], "threshold": [-0.2667606920003891, -1.256449282169342, -2.218156099319458, -2.8349146842956543, -2.0, -2.0, -1.3281960487365723, -2.0, -2.0, -0.7364422976970673, -0.8833469748497009, -2.0, -2.0, -0.5161099135875702, -2.0, -2.0, 0.8671663701534271, 0.46023452281951904, -0.08161820843815804, -2.0, -2.0, 0.2751159965991974, -2.0, -2.0, 2.371047019958496, 1.3833816647529602, -2.0, -2.0, 3.905685305595398, -2.0, -2.0], "value": [1.422142826781748e-16, -0.029916404977542815, -0.064136524583684, -0.09328873651744662, -0.12295902049695784, -0.08339864185760958, -0.053996624780636146, -0.06334023447386504, -0.04637420634668628, -0.018129474890983058, -0.029494261163757148, -0.035176602204730775, -0.024808822059796436, -0.01100936782852214, -0.015497357872476558, -0.006521377784567722, 0.022766572341400743, 0.01253352952074075, 0.005817900702001429, 0.0013810050086686752, 0.009756777490980507, 0.021407753316931996, 0.017571660383582183, 0.024638147366068685, 0.044646433635575015, 0.04043735783427397, 0.034973117398915995, 0.04615773454003935, 0.07090304934845323, 0.06755578788840796, 0.13784827854935866]}, {"children_left": [1, 2, 3, 4, -1, -1, 7, -1, -1, 10, 11, -1, -1, 14, -1, -1, 17, 18, 19, -1, -1, 22, -1, -1, 25, 26, -1, -1, 29, -1, -1], "children_right": [16, 9, 6, 5, -1, -1, 8, -1, -1, 13, 12, -1, -1, 15, -1, -1, 24, 21, 20, -1, -1, 23, -1, -1, 28, 27, -1, -1, 30, -1, -1], "feature": [3, 0, 2, 0, -2, -2, 0, -2, -2, 3, 3, -2, -2, 3, -2, -2, 2, 3, 2, -2, -2, 0, -2, -2, 2, 0, -2, -2, 7, -2, -2], "threshold": [-0.13688649237155914, -1.2076983451843262, -1.0383758544921875, -1.9045237302780151, -2.0, -2.0, -1.407343327999115, -2.0, -2.0, -0.6843285262584686, -0.9810880720615387, -2.0, -2.0, -0.424393430352211, -2.0, -2.0, 0.6197276413440704, 0.3347577750682831, -0.2979260981082916, -2.0, -2.0, 0.4237448424100876, -2.0, -2.0, 2.788784623146057, 1.3785924911499023, -2.0, -2.0, 0.7093029022216797, -2.0, -2.0], "value": [9.833403932394243e-17, -0.02984924659650619, -0.06317512776269095, -0.0967402808033806, -0.14128623474659086, -0.09037657309720772, -0.055277444694293354, -0.06560643735724658, -0.04759691168850761, -0.01904085270477062, -0.030421609241381164, -0.03609826840454978, -0.026086705880416044, -0.012226449099516139, -0.017039340210340245, -0.008179245210868597, 0.02060018427082836, 0.010438733313035258, 0.003046786175107602, -0.0007738784334130681, 0.006691788043006633, 0.018148126033573304, 0.014200674205392245, 0.02195289888001288, 0.04123288652049368, 0.0373963465374778, 0.032093336362415445, 0.04375995874755263, 0.06735789688103051, 0.0641779984939875, 0.13095586462189068]}, {"children_left": [1, 2, 3, 4, -1, -1, 7, -1, -1, 10, 11, -1, -1, 14, -1, -1, 17, 18, 19, -1, -1, 22, -1, -1, 25, 26, -1, -1, 29, -1, -1], "children_right": [16, 9, 6, 5, -1, -1, 8, -1, -1, 13, 12, -1, -1, 15, -1, -1, 24, 21, 20, -1, -1, 23, -1, -1, 28, 27, -1, -1, 30, -1, -1], "feature": [2, 0, 3, 5, -2, -2, 0, -2, -2, 2, 2, -2, -2, 3, -2, -2, 0, 0, 3, -2, -2, 2, -2, -2, 3, 0, -2, -2, 0, -2, -2], "threshold": [-0.5503739714622498, -1.2995165586471558, -2.702241897583008, -1.655776858329773, -2.0, -2.0, -1.5479400157928467, -2.0, -2.0, -0.797698050737381, -0.8808385133743286, -2.0, -2.0, -0.5685742199420929, -2.0, -2.0, 0.6427629590034485, 0.029464521445333958, 0.011271337978541851, -2.0, -2.0, 0.09482114017009735, -2.0, -2.0, 1.5248746275901794, 1.1156461238861084, -2.0, -2.0, 2.7751330137252808, -2.0, -2.0], "value": [1.163090787702545e-16, -0.03228688025076538, -0.06733018658389817, -0.10433321358044395, -0.1342219230092614, -0.09579358231506754, -0.060800240643331276, -0.0707864773024018, -0.054870912627008106, -0.02322395619909308, -0.035473543075083505, -0.04006875512587408, -0.030878331024292927, -0.016776805211729705, -0.021924000451182445, -0.01303339049212771, 0.017203958089824067, 0.0065585949406138265, -0.00041569516297210147, -0.00401179297713589, 0.0037525091216268347, 0.0145895956659552, 0.010802585823333159, 0.018241355157055023, 0.036784807405728905, 0.03180986114090566, 0.025836770848173707, 0.036981683223636964, 0.05581397686867773, 0.05093327081422111, 0.08347131117726521]}, {"children_left": [1, 2, 3, 4, -1, -1, 7, -1, -1, 10, 11, -1, -1, 14, -1, -1, 17, 18, 19, -1, -1, 22, -1, -1, 25, 26, -1, -1, 29, -1, -1], "children_right": [16, 9, 6, 5, -1, -1, 8, -1, -1, 13, 12, -1, -1, 15, -1, -1, 24, 21, 20, -1, -1, 23, -1, -1, 28, 27, -1, -1, 30, -1, -1], "feature": [0, 0, 2, 5, -2, -2, 2, -2, -2, 3, 3, -2, -2, 2, -2, -2, 3, 0, 3, -2, -2, 2, -2, -2, 0, 3, -2, -2, 0, -2, -2], "threshold": [-0.45015910267829895, -1.2617666125297546, -1.0457969307899475, -1.655776858329773, -2.0, -2.0, -0.9952977001667023, -2.0, -2.0, -0.7572518885135651, -1.1000797748565674, -2.0, -2.0, -0.6321502923965454, -2.0, -2.0, 0.7901619374752045, 0.05449530482292175, 0.03966977633535862, -2.0, -2.0, 0.12677553296089172, -2.0, -2.0, 2.014484167098999, 1.1165727376937866, -2.0, -2.0, 3.4247751235961914, -2.0, -2.0], "value": [9.225424657004277e-17, -0.028986412037153533, -0.061068302482868306, -0.09491109438377997, -0.12751082685879833, -0.08766670938933145, -0.05464984194993679, -0.06276629314870673, -0.047074487497751526, -0.01995110411570733, -0.03042570201166021, -0.03590881567556338, -0.026262597192770767, -0.013317192114937147, -0.017088505958621634, -0.00912094150013328, 0.017303675626741975, 0.0075233732669310535, 0.0006395708503164933, -0.002593722875557041, 0.004267168689101435, 0.014569147505113015, 0.011093866709852717, 0.018387665909781737, 0.03578952184528571, 0.03130459132578102, 0.026230235788945257, 0.03659037834331829, 0.054626230027205416, 0.05182134362599915, 0.10090685564710888]}, {"children_left": [1, 2, 3, 4, -1, -1, 7, -1, -1, 10, 11, -1, -1, 14, -1, -1, 17, 18, 19, -1, -1, 22, -1, -1, 25, 26, -1, -1, 29, -1, -1], "children_right": [16, 9, 6, 5, -1, -1, 8, -1, -1, 13, 12, -1, -1, 15, -1, -1, 24, 21, 20, -1, -1, 23, -1, -1, 28, 27, -1, -1, 30, -1, -1], "feature": [2, 0, 3, 2, -2, -2, 0, -2, -2, 2, 2, -2, -2, 2, -2, -2, 2, 3, 0, -2, -2, 0, -2, -2, 3, 3, -2, -2, 3, -2, -2], "threshold": [-0.40051382780075073, -1.1483775973320007, -2.274529218673706, -1.061454951763153, -2.0, -2.0, -1.3332340717315674, -2.0, -2.0, -0.7012409865856171, -0.8180672526359558, -2.0, -2.0, -0.5892260670661926, -2.0, -2.0, 0.6726550757884979, 0.3672357201576233, -0.09211412072181702, -2.0, -2.0, 0.4828645586967468, -2.0, -2.0, 1.7399869561195374, 1.3695930242538452, -2.0, -2.0, 2.325040817260742, -2.0, -2.0], "value": [1.2608961493957135e-16, -0.024399207141001904, -0.05229034367201269, -0.07771541064902898, -0.10423694800299596, -0.06991495848609752, -0.0444121539044865, -0.05235592717725523, -0.03789418609093268, -0.014792260113653723, -0.02420106279443294, -0.029336567258238612, -0.020887834108106698, -0.009079772771752058, -0.013063388726517479, -0.005627305610955361, 0.01856795008843563, 0.010206671228284895, 0.0038665634767950864, 0.0008656998687446738, 0.006830379385980679, 0.016430801398954767, 0.013116023714241701, 0.019827425446253343, 0.036445684493363155, 0.03332768675041415, 0.02980724348063213, 0.04013897916368808, 0.06120625480501701, 0.05783232303973196, 0.11518916304957783]}, {"children_left": [1, 2, 3, 4, -1, -1, 7, -1, -1, 10, 11, -1, -1, 14, -1, -1, 17, 18, 19, -1, -1, 22, -1, -1, 25, 26, -1, -1, 29, -1, -1], "children_right": [16, 9, 6, 5, -1, -1, 8, -1, -1, 13, 12, -1, -1, 15, -1, -1, 24, 21, 20, -1, -1, 23, -1, -1, 28, 27, -1, -1, 30, -1, -1], "feature": [2, 2, 0, 4, -2, -2, 0, -2, -2, 0, 0, -2, -2, 2, -2, -2, 2, 2, 2, -2, -2, 0, -2, -2, 0, 3, -2, -2, 1, -2, -2], "threshold": [-0.5085301399230957, -0.9307818412780762, -1.714700996875763, -1.893496572971344, -2.0, -2.0, -1.492313802242279, -2.0, -2.0, -0.8102063834667206, -1.0302708148956299, -2.0, -2.0, -0.6306055784225464, -2.0, -2.0, 0.4676082879304886, -0.13147900253534317, -0.3300967365503311, -2.0, -2.0, 0.3551868200302124, -2.0, -2.0, 2.014484167098999, 1.118676781654358, -2.0, -2.0, 2.8662644624710083, -2.0, -2.0], "value": [1.1657341758564144e-16, -0.025778138570965385, -0.05462168610695149, -0.08984136849363115, -0.1159234381157086, -0.08238934860160903, -0.04950915156694962, -0.05856141119806128, -0.04297140850003562, -0.017553673209298664, -0.02652188386030412, -0.03160871126643183, -0.022575207424515378, -0.011226784873315365, -0.014788792710830062, -0.007945988180867617, 0.015863469889825038, 0.006891849242279154, 0.0010313354591594604, -0.0019971945096110763, 0.004238014249622382, 0.013301786192566317, 0.010274923528375283, 0.01648387258312612, 0.03210937754889462, 0.028080420639816694, 0.023534080180589917, 0.03313902481275917, 0.04937633573065717, 0.04507420557016363, 0.07518911669361836]}, {"children_left": [1, 2, 3, 4, -1, -1, 7, -1, -1, 10, 11, -1, -1, 14, -1, -1, 17, 18, 19, -1, -1, 22, -1, -1, 25, 26, -1, -1, 29, -1, -1], "children_right": [16, 9, 6, 5, -1, -1, 8, -1, -1, 13, 12, -1, -1, 15, -1, -1, 24, 21, 20, -1, -1, 23, -1, -1, 28, 27, -1, -1, 30, -1, -1], "feature": [0, 3, 3, 4, -2, -2, 2, -2, -2, 0, 2, -2, -2, 0, -2, -2, 2, 3, 2, -2, -2, 3, -2, -2, 2, 3, -2, -2, 1, -2, -2], "threshold": [-0.3020620495080948, -1.3310532569885254, -2.4024910926818848, -1.8487110137939453, -2.0, -2.0, -0.972561776638031, -2.0, -2.0, -0.7838475406169891, -0.8220726251602173, -2.0, -2.0, -0.5837679803371429, -2.0, -2.0, 0.6726550757884979, 0.3672357201576233, -0.2720409482717514, -2.0, -2.0, 0.637736976146698, -2.0, -2.0, 2.9820979833602905, 1.3725424408912659, -2.0, -2.0, 3.83888578414917, -2.0, -2.0], "value": [1.1736643403180226e-16, -0.022300927479920837, -0.04816807903379892, -0.07346235884728544, -0.1032177505651879, -0.06751128050370495, -0.04166383565318812, -0.04931527999357905, -0.03558191835697991, -0.013870152158656819, -0.022861844165270272, -0.027226033490191197, -0.01958870217157958, -0.008746978806051476, -0.012765963632923906, -0.005712235161270255, 0.016563759414547196, 0.009027744566664817, 0.003310745372075953, 0.0005534573218747179, 0.006135284350330877, 0.014814463263626714, 0.012003903701421424, 0.018068795388285472, 0.03292484428166023, 0.03018039436579309, 0.026959511993566092, 0.03648212074623721, 0.05625266856653094, 0.05295816320013846, 0.10567024906241818]}, {"children_left": [1, 2, 3, 4, -1, -1, 7, -1, -1, 10, 11, -1, -1, 14, -1, -1, 17, 18, 19, -1, -1, 22, -1, -1, 25, 26, -1, -1, 29, -1, -1], "children_right": [16, 9, 6, 5, -1, -1, 8, -1, -1, 13, 12, -1, -1, 15, -1, -1, 24, 21, 20, -1, -1, 23, -1, -1, 28, 27, -1, -1, 30, -1, -1], "feature": [0, 0, 0, 5, -2, -2, 3, -2, -2, 0, 2, -2, -2, 3, -2, -2, 2, 2, 0, -2, -2, 3, -2, -2, 2, 2, -2, -2, 2, -2, -2], "threshold": [-0.48523104190826416, -1.3075928092002869, -1.714700996875763, -1.655776858329773, -2.0, -2.0, -2.1678123474121094, -2.0, -2.0, -0.906639575958252, -0.8808385133743286, -2.0, -2.0, -0.5316215455532074, -2.0, -2.0, 0.35254916548728943, -0.1898161768913269, -0.23377107083797455, -2.0, -2.0, 0.4726838916540146, -2.0, -2.0, 1.7509371042251587, 0.8869425058364868, -2.0, -2.0, 3.5035197734832764, -2.0, -2.0], "value": [1.4115692741662704e-16, -0.025023274705473282, -0.05254771902538104, -0.08137862820940625, -0.1049663786816637, -0.0746392709316184, -0.047358155372256475, -0.055285593060824874, -0.042898971672436774, -0.018053565628758417, -0.02694237450890817, -0.031032705322702886, -0.023374213586236182, -0.012658978170460649, -0.01586042783110076, -0.009413063931200536, 0.013333569733573565, 0.004515073398031736, -0.0005183936965827531, -0.0035340860195099966, 0.002275089718339325, 0.010457811967802391, 0.00773196779966622, 0.01321905670955072, 0.02752714954982659, 0.02276569672272776, 0.01866238247042223, 0.027146261938026908, 0.04030789134888137, 0.03698091667733938, 0.06407199614560984]}, {"children_left": [1, 2, 3, 4, -1, -1, 7, -1, -1, 10, 11, -1, -1, 14, -1, -1, 17, 18, 19, -1, -1, 22, -1, -1, 25, 26, -1, -1, 29, -1, -1], "children_right": [16, 9, 6, 5, -1, -1, 8, -1, -1, 13, 12, -1, -1, 15, -1, -1, 24, 21, 20, -1, -1, 23, -1, -1, 28, 27, -1, -1, 30, -1, -1], "feature": [0, 0, 0, 3, -2, -2, 0, -2, -2, 2, 3, -2, -2, 3, -2, -2, 0, 3, 2, -2, -2, 3, -2, -2, 2, 0, -2, -2, 3, -2, -2], "threshold": [-0.4683844596147537, -1.2995165586471558, -1.714700996875763, -3.5525556802749634, -2.0, -2.0, -1.5238807201385498, -2.0, -2.0, -0.7682595252990723, -1.1747370958328247, -2.0, -2.0, -0.4882219731807709, -2.0, -2.0, 0.6856657564640045, 0.2661316394805908, -0.35696132481098175, -2.0, -2.0, 0.5217304825782776, -2.0, -2.0, 2.609824299812317, 1.2262941598892212, -2.0, -2.0, 2.325040817260742, -2.0, -2.0], "value": [1.2899734190882772e-16, -0.023161902058990515, -0.04964548067701422, -0.07730969679893593, -0.09971805974758041, -0.0709073073850375, -0.04476356018491039, -0.051356883637522645, -0.039761728600170056, -0.01659572554212512, -0.024729858339004096, -0.028975339773006523, -0.02112520429126618, -0.011059996277582489, -0.014023961886921864, -0.008012538679247639, 0.01300166249408036, 0.0053751295714261635, 0.00016505821046957416, -0.0026130244899071754, 0.0030035340130284273, 0.011177963542311944, 0.008578406439180902, 0.014144124852294802, 0.027553911800550283, 0.024549946642535785, 0.020232294010372777, 0.02909189291792804, 0.04513267087337597, 0.043130729876120544, 0.09718313680201707]}, {"children_left": [1, 2, 3, 4, -1, -1, 7, -1, -1, 10, 11, -1, -1, 14, -1, -1, 17, 18, 19, -1, -1, 22, -1, -1, 25, 26, -1, -1, 29, -1, -1], "children_right": [16, 9, 6, 5, -1, -1, 8, -1, -1, 13, 12, -1, -1, 15, -1, -1, 24, 21, 20, -1, -1, 23, -1, -1, 28, 27, -1, -1, 30, -1, -1], "feature": [2, 2, 0, 4, -2, -2, 2, -2, -2, 0, 3, -2, -2, 0, -2, -2, 2, 3, 2, -2, -2, 2, -2, -2, 3, 2, -2, -2, 3, -2, -2], "threshold": [-0.46106764674186707, -0.9206899404525757, -1.6549431085586548, -1.8487110137939453, -2.0, -2.0, -0.9853836297988892, -2.0, -2.0, -0.796132892370224, -0.9810880720615387, -2.0, -2.0, -0.6057185232639313, -2.0, -2.0, 0.6726550757884979, 0.3347577750682831, -0.2948603481054306, -2.0, -2.0, 0.23073065280914307, -2.0, -2.0, 1.7622973918914795, 1.535833477973938, -2.0, -2.0, 2.325040817260742, -2.0, -2.0], "value": [1.1710209521641532e-16, -0.019853032189159455, -0.042969167876050846, -0.06680524422671309, -0.08880827211734266, -0.06080441843835958, -0.03783524373898512, -0.0445263807173392, -0.03244516117308877, -0.012935703707097228, -0.020771140806977135, -0.02431239995551282, -0.01757038734580065, -0.008234441447169285, -0.01164679728422249, -0.005657023740458884, 0.01370138841223699, 0.007280136483353542, 0.002041962189004664, -0.00043302716188344805, 0.004516951539892776, 0.012368648655006736, 0.009752740835020274, 0.015202548793325403, 0.028275940487663225, 0.025959965240347462, 0.022636692419231587, 0.03062420779629957, 0.04942851441314723, 0.046364552588235144, 0.09232397996191644]}, {"children_left": [1, 2, 3, 4, -1, -1, 7, -1, -1, 10, 11, -1, -1, 14, -1, -1, 17, 18, 19, -1, -1, 22, -1, -1, 25, 26, -1, -1, 29, -1, -1], "children_right": [16, 9, 6, 5, -1, -1, 8, -1, -1, 13, 12, -1, -1, 15, -1, -1, 24, 21, 20, -1, -1, 23, -1, -1, 28, 27, -1, -1, 30, -1, -1], "feature": [2, 2, 2, 7, -2, -2, 3, -2, -2, 3, 0, -2, -2, 0, -2, -2, 2, 3, 0, -2, -2, 0, -2, -2, 0, 2, -2, -2, 0, -2, -2], "threshold": [-0.5503739714622498, -0.9496004581451416, -1.0508211255073547, 2.840572953224182, -2.0, -2.0, -2.179056406021118, -2.0, -2.0, -0.8734402060508728, -1.1184353232383728, -2.0, -2.0, -0.7031999826431274, -2.0, -2.0, 0.3049360513687134, 0.15582898259162903, -0.26197440922260284, -2.0, -2.0, 0.2927653342485428, -2.0, -2.0, 1.7422065138816833, 0.8869425058364868, -2.0, -2.0, 2.7260626554489136, -2.0, -2.0], "value": [6.053358872360972e-17, -0.02147145157548373, -0.045102851590411205, -0.0699372601424214, -0.06600120854510798, -0.10142567292092874, -0.04063265805104937, -0.04782534071446944, -0.03692733667898449, -0.01548753483350634, -0.023469065171335412, -0.02660516890772878, -0.02040763057152284, -0.011071088046574253, -0.014368607993238655, -0.008549455146183828, 0.011440992445330816, 0.003696342213485484, -0.0009673102883948585, -0.003525072706895449, 0.0010344168217360384, 0.008248955370082961, 0.006089197623560953, 0.011128632365445638, 0.023344806690574576, 0.019471565495323518, 0.015797633239670723, 0.02347520962007336, 0.03525685036653538, 0.03214909207903416, 0.05567926197011484]}, {"children_left": [1, 2, 3, 4, -1, -1, 7, -1, -1, 10, 11, -1, -1, 14, -1, -1, 17, 18, 19, -1, -1, 22, -1, -1, 25, 26, -1, -1, 29, -1, -1], "children_right": [16, 9, 6, 5, -1, -1, 8, -1, -1, 13, 12, -1, -1, 15, -1, -1, 24, 21, 20, -1, -1, 23, -1, -1, 28, 27, -1, -1, 30, -1, -1], "feature": [0, 0, 2, 3, -2, -2, 0, -2, -2, 3, 2, -2, -2, 2, -2, -2, 0, 0, 3, -2, -2, 3, -2, -2, 2, 2, -2, -2, 2, -2, -2], "threshold": [-0.4868609458208084, -1.3075928092002869, -1.0532519817352295, -3.778613567352295, -2.0, -2.0, -1.5525848865509033, -2.0, -2.0, -0.7911273241043091, -0.8621200919151306, -2.0, -2.0, -0.6553372442722321, -2.0, -2.0, 0.6331334710121155, 0.017125708051025867, -0.02477138675749302, -2.0, -2.0, 0.49342237412929535, -2.0, -2.0, 1.9002744555473328, 0.9438576102256775, -2.0, -2.0, 4.064449071884155, -2.0, -2.0], "value": [8.987519723156029e-17, -0.020452121472486224, -0.042847709010890606, -0.06815089072276406, -0.09635438927488227, -0.06412181950103289, -0.03887858246785163, -0.0458408722763483, -0.03508096984503526, -0.014756691882978212, -0.021284924106081387, -0.024654010230725158, -0.017847081121751, -0.009897331055254796, -0.012137812652089647, -0.007407907058771629, 0.010840741982684112, 0.004033651346241962, -0.0003232963241287635, -0.0030835151530170667, 0.001838007098491323, 0.009054767868803347, 0.006685243798151004, 0.011424291939455692, 0.02310045113913345, 0.019539965724387987, 0.01578711758731004, 0.022776797242617712, 0.03438794745396475, 0.0323514967439611, 0.06425589120068483]}, {"children_left": [1, 2, 3, 4, -1, -1, 7, -1, -1, 10, 11, -1, -1, 14, -1, -1, 17, 18, 19, -1, -1, 22, -1, -1, 25, 26, -1, -1, 29, -1, -1], "children_right": [16, 9, 6, 5, -1, -1, 8, -1, -1, 13, 12, -1, -1, 15, -1, -1, 24, 21, 20, -1, -1, 23, -1, -1, 28, 27, -1, -1, 30, -1, -1], "feature": [2, 2, 0, 4, -2, -2, 2, -2, -2, 2, 0, -2, -2, 2, -2, -2, 2, 3, 0, -2, -2, 2, -2, -2, 2, 2, -2, -2, 8, -2, -2], "threshold": [-0.49762628972530365, -0.9384002387523651, -1.6863270998001099, -1.893496572971344, -2.0, -2.0, -0.9952977001667023, -2.0, -2.0, -0.7392708361148834, -1.0302708148956299, -2.0, -2.0, -0.6306055784225464, -2.0, -2.0, 0.6726550757884979, 0.320487841963768, -0.15031078457832336, -2.0, -2.0, 0.20541755110025406, -2.0, -2.0, 2.9820979833602905, 1.3945751190185547, -2.0, -2.0, 1.939997136592865, -2.0, -2.0], "value": [-7.930164461608261e-19, -0.017811646247852104, -0.03904041748369363, -0.060537044513917324, -0.08209416589828533, -0.05574657309516887, -0.034817865745613984, -0.039760233393016965, -0.029875498098211013, -0.0122987482912576, -0.01879657533959998, -0.022321441841552003, -0.015818670881054306, -0.007694327800048097, -0.010307963909421604, -0.005435629927750005, 0.011240359282625102, 0.005782268519272915, 0.0011403302720248223, -0.0011131613189929294, 0.003495102383987192, 0.01044985283418536, 0.008010955214597475, 0.012809221183569294, 0.024275141829314905, 0.022163816890705953, 0.01903719585958928, 0.025681265550712207, 0.04222140380749101, 0.03958876250763836, 0.08171102330528068]}, {"children_left": [1, 2, 3, 4, -1, -1, 7, -1, -1, 10, 11, -1, -1, 14, -1, -1, 17, 18, 19, -1, -1, 22, -1, -1, 25, 26, -1, -1, 29, -1, -1], "children_right": [16, 9, 6, 5, -1, -1, 8, -1, -1, 13, 12, -1, -1, 15, -1, -1, 24, 21, 20, -1, -1, 23, -1, -1, 28, 27, -1, -1, 30, -1, -1], "feature": [2, 0, 3, 2, -2, -2, 3, -2, -2, 2, 2, -2, -2, 0, -2, -2, 0, 3, 3, -2, -2, 0, -2, -2, 3, 2, -2, -2, 3, -2, -2], "threshold": [-0.40051382780075073, -1.2158321142196655, -2.479292631149292, -1.0697431564331055, -2.0, -2.0, -1.808132827281952, -2.0, -2.0, -0.7123949825763702, -0.8220726251602173, -2.0, -2.0, -0.5467042028903961, -2.0, -2.0, 0.9197193384170532, 0.4302244633436203, 0.12938208132982254, -2.0, -2.0, 0.510894387960434, -2.0, -2.0, 1.7650349736213684, 1.747009038925171, -2.0, -2.0, 2.325040817260742, -2.0, -2.0], "value": [-1.2926168072421466e-16, -0.015414685640502513, -0.03460723819217334, -0.05382100846614386, -0.07306850812514505, -0.04900913355139356, -0.03030564783232918, -0.035956273997391, -0.025993327864255684, -0.009814011942150183, -0.016038078449911498, -0.019359206762610177, -0.013466882336854454, -0.005810226469321269, -0.008339260616046144, -0.003534095737268883, 0.01173067272013062, 0.006530659612505831, 0.0028267174146584867, 0.000528107940689726, 0.004703133311775842, 0.010896896110630515, 0.008902823323980642, 0.012763143718648987, 0.023290161317485725, 0.021392986062724748, 0.019157968649331364, 0.025964612590120305, 0.041448838755912244, 0.03866602080328882, 0.0776254721400167]}, {"children_left": [1, 2, 3, 4, -1, -1, 7, -1, -1, 10, 11, -1, -1, 14, -1, -1, 17, 18, 19, -1, -1, 22, -1, -1, 25, 26, -1, -1, 29, -1, -1], "children_right": [16, 9, 6, 5, -1, -1, 8, -1, -1, 13, 12, -1, -1, 15, -1, -1, 24, 21, 20, -1, -1, 23, -1, -1, 28, 27, -1, -1, 30, -1, -1], "feature": [0, 0, 2, 1, -2, -2, 2, -2, -2, 2, 3, -2, -2, 3, -2, -2, 0, 2, 3, -2, -2, 0, -2, -2, 2, 2, -2, -2, 2, -2, -2], "threshold": [-0.48730388283729553, -1.3075928092002869, -1.0532519817352295, -1.8914207816123962, -2.0, -2.0, -1.0181728601455688, -2.0, -2.0, -0.797698050737381, 